{"learner":{"attributes":{"best_iteration":"36","best_score":"0.9167478677371274"},"feature_names":[],"feature_types":[],"gradient_booster":{"model":{"gbtree_model_param":{"num_parallel_tree":"1","num_trees":"435"},"iteration_indptr":[0,5,10,15,20,25,30,35,40,45,50,55,60,65,70,75,80,85,90,95,100,105,110,115,120,125,130,135,140,145,150,155,160,165,170,175,180,185,190,195,200,205,210,215,220,225,230,235,240,245,250,255,260,265,270,275,280,285,290,295,300,305,310,315,320,325,330,335,340,345,350,355,360,365,370,375,380,385,390,395,400,405,410,415,420,425,430,435],"tree_info":[0,1,2,3,4,0,1,2,3,4,0,1,2,3,4,0,1,2,3,4,0,1,2,3,4,0,1,2,3,4,0,1,2,3,4,0,1,2,3,4,0,1,2,3,4,0,1,2,3,4,0,1,2,3,4,0,1,2,3,4,0,1,2,3,4,0,1,2,3,4,0,1,2,3,4,0,1,2,3,4,0,1,2,3,4,0,1,2,3,4,0,1,2,3,4,0,1,2,3,4,0,1,2,3,4,0,1,2,3,4,0,1,2,3,4,0,1,2,3,4,0,1,2,3,4,0,1,2,3,4,0,1,2,3,4,0,1,2,3,4,0,1,2,3,4,0,1,2,3,4,0,1,2,3,4,0,1,2,3,4,0,1,2,3,4,0,1,2,3,4,0,1,2,3,4,0,1,2,3,4,0,1,2,3,4,0,1,2,3,4,0,1,2,3,4,0,1,2,3,4,0,1,2,3,4,0,1,2,3,4,0,1,2,3,4,0,1,2,3,4,0,1,2,3,4,0,1,2,3,4,0,1,2,3,4,0,1,2,3,4,0,1,2,3,4,0,1,2,3,4,0,1,2,3,4,0,1,2,3,4,0,1,2,3,4,0,1,2,3,4,0,1,2,3,4,0,1,2,3,4,0,1,2,3,4,0,1,2,3,4,0,1,2,3,4,0,1,2,3,4,0,1,2,3,4,0,1,2,3,4,0,1,2,3,4,0,1,2,3,4,0,1,2,3,4,0,1,2,3,4,0,1,2,3,4,0,1,2,3,4,0,1,2,3,4,0,1,2,3,4,0,1,2,3,4,0,1,2,3,4,0,1,2,3,4,0,1,2,3,4,0,1,2,3,4,0,1,2,3,4,0,1,2,3,4,0,1,2,3,4,0,1,2,3,4,0,1,2,3,4,0,1,2,3,4,0,1,2,3,4,0,1,2,3,4,0,1,2,3,4,0,1,2,3,4,0,1,2,3,4,0,1,2,3,4],"trees":[{"base_weights":[7.971177E-1,1.6623431E0,-1.4166279E-1,2.1329877E0,2.3294508E-1,-4.9586773E-1,2.157943E-1,2.3413491E0,7.5471693E-1,-3.8461536E-1,1.1445782E0,-5.7846504E-1,-1.452282E-1,-5.486968E-2,7.142857E-1,1.7790103E-1,3.9473683E-2,1.5517241E0,-1.7241378E-1,7.751938E-2,-4.2582415E-2,-4.4247787E-2,1.3509317E-1,-0E0,-4.546819E-2,-4.3062198E-1,7.236842E-2,9.5505613E-1,-1.8796991E-1,1.3513513E-1,1.111111E0,2.8846154E-2,1.4285713E-1,-3.5714284E-2,2.8846154E-2,-3.3707865E-2,5.7692308E-2,-3.0821918E-2,2.8846154E-2,-4.0254235E-2,6.578948E-3,1.05263166E-1,6.578948E-3,-2.448657E-1,3.9473683E-2,7.236842E-2,-1.9607842E-1,5.839416E-1,1.1283185E-1,-2.3086522E-2,3.9473683E-2,-3.4793813E-2,1.3888889E-2,7.236842E-2,1.7857142E-2],"categories":[],"categories_nodes":[],"categories_segments":[],"categories_sizes":[],"default_left":[0,0,0,0,0,0,0,0,0,0,0,0,0,0,0,0,0,0,0,0,0,0,0,0,0,0,0,0,0,0,0,0,0,0,0,0,0,0,0,0,0,0,0,0,0,0,0,0,0,0,0,0,0,0,0],"id":0,"left_children":[1,3,5,7,9,11,13,15,17,19,21,23,25,27,29,-1,-1,31,33,35,-1,37,-1,-1,-1,39,-1,41,43,45,47,-1,-1,-1,-1,-1,-1,-1,-1,-1,-1,-1,-1,49,-1,-1,51,53,-1,-1,-1,-1,-1,-1,-1],"loss_changes":[1.445248E2,6.1744904E1,1.1010924E1,1.8186127E1,1.3974468E1,1.1775694E0,5.9164677E0,2.08432E0,8.100195E0,1.320385E0,7.8550653E0,5.611038E-1,3.4697263E0,4.099249E0,3.389102E0,0E0,0E0,1.6571922E0,1.1645825E0,2.2265549E0,0E0,8.6891645E-1,0E0,0E0,0E0,5.068526E-1,0E0,1.261581E0,1.2098968E0,2.2229657E0,9.8759174E-1,0E0,0E0,0E0,0E0,0E0,0E0,0E0,0E0,0E0,0E0,0E0,0E0,1.3912816E0,0E0,0E0,7.1086854E-1,4.9228895E-1,0E0,0E0,0E0,0E0,0E0,0E0,0E0],"parents":[2147483647,0,0,1,1,2,2,3,3,4,4,5,5,6,6,7,7,8,8,9,9,10,10,11,11,12,12,13,13,14,14,17,17,18,18,19,19,21,21,25,25,27,27,28,28,29,29,30,30,43,43,46,46,47,47],"right_children":[2,4,6,8,10,12,14,16,18,20,22,24,26,28,30,-1,-1,32,34,36,-1,38,-1,-1,-1,40,-1,42,44,46,48,-1,-1,-1,-1,-1,-1,-1,-1,-1,-1,-1,-1,50,-1,-1,52,54,-1,-1,-1,-1,-1,-1,-1],"split_conditions":[4.93E2,1E0,7.05E2,2E0,1E0,1E0,1E0,2.1E0,9E-1,4E-1,2E0,9.6E1,2E0,5.2E1,1.33E2,1.7790103E-1,3.9473683E-2,1E0,2E0,1E-1,-4.2582415E-2,6.2E1,1.3509317E-1,-0E0,-4.546819E-2,2E0,7.236842E-2,7.82E2,9.05E2,7.27E2,6.1E1,2.8846154E-2,1.4285713E-1,-3.5714284E-2,2.8846154E-2,-3.3707865E-2,5.7692308E-2,-3.0821918E-2,2.8846154E-2,-4.0254235E-2,6.578948E-3,1.05263166E-1,6.578948E-3,1.49E2,3.9473683E-2,7.236842E-2,2.2E2,4.9E1,1.1283185E-1,-2.3086522E-2,3.9473683E-2,-3.4793813E-2,1.3888889E-2,7.236842E-2,1.7857142E-2],"split_indices":[0,13,0,14,4,4,4,11,11,11,12,5,12,1,9,0,0,4,4,11,0,1,0,0,0,8,0,0,0,0,1,0,0,0,0,0,0,0,0,0,0,0,0,9,0,0,6,1,0,0,0,0,0,0,0],"split_type":[0,0,0,0,0,0,0,0,0,0,0,0,0,0,0,0,0,0,0,0,0,0,0,0,0,0,0,0,0,0,0,0,0,0,0,0,0,0,0,0,0,0,0,0,0,0,0,0,0,0,0,0,0,0,0],"sum_hessian":[1.7664001E2,9.1520004E1,8.512E1,6.848E1,2.304E1,4.256E1,4.256E1,5.8880005E1,9.6E0,1.4080001E1,8.960001E0,3.3920002E1,8.64E0,2.8160002E1,1.4400001E1,5.7600002E1,1.2800001E0,4.8E0,4.8E0,4.1600003E0,9.920001E0,3.5200002E0,5.4400005E0,1.6000001E0,3.2320004E1,7.3600006E0,1.2800001E0,2.5600002E0,2.5600002E1,6.4000006E0,8.000001E0,1.6000001E0,3.2000003E0,3.2000003E0,1.6000001E0,2.5600002E0,1.6000001E0,1.9200001E0,1.6000001E0,6.0800004E0,1.2800001E0,1.2800001E0,1.2800001E0,2.4320002E1,1.2800001E0,1.2800001E0,5.1200004E0,4.4800005E0,3.5200002E0,2.304E1,1.2800001E0,2.88E0,2.2400002E0,1.2800001E0,3.2000003E0],"tree_param":{"num_deleted":"0","num_feature":"15","num_nodes":"55","size_leaf_vector":"1"}},{"base_weights":[2.6795766E-1,-3.2433608E-1,8.921161E-1,-1.5099518E-1,-4.552023E-2,1.7545871E-1,4.0024254E-1,-1.9298245E-1,7.236842E-2,6.20525E-1,-2.8776976E-1,-4.8387095E-1,-5.076142E-2,9.0794444E-1,1.2269938E-1,7.751938E-2,-4.1533545E-1,-5.2941173E-1,-0E0,4.6511626E-1,-1.2485811E-1,1.0698365E0,-0E0,7.236842E-2,1.0940919E-2,-3.4793813E-2,7.236842E-2,-4.1845493E-2,-0E0,-5.1369863E-3,-4.3766577E-2,-2.6315792E-2,6.185567E-2,-2.6470589E-2,6.2370063E-3,1.7487047E-2,1.00247525E-1,-3.0821918E-2,2.3195876E-2,-8.823529E-3,7.236842E-2,3.9473683E-2,-3.0821918E-2],"categories":[],"categories_nodes":[],"categories_segments":[],"categories_sizes":[],"default_left":[0,0,0,0,0,0,0,0,0,0,0,0,0,0,0,0,0,0,0,0,0,0,0,0,0,0,0,0,0,0,0,0,0,0,0,0,0,0,0,0,0,0,0],"id":1,"left_children":[1,3,5,7,-1,-1,9,11,-1,13,15,17,19,21,23,25,27,29,-1,31,33,35,37,-1,39,-1,-1,-1,41,-1,-1,-1,-1,-1,-1,-1,-1,-1,-1,-1,-1,-1,-1],"loss_changes":[6.596022E1,4.4092054E0,6.0828537E1,2.9168558E0,0E0,0E0,1.0175271E1,2.333555E0,0E0,7.082901E0,8.094573E-1,4.0986633E-1,1.5641319E0,4.662489E0,1.8305165E0,2.9268506E0,7.4154305E-1,3.8427162E-1,0E0,1.803598E0,1.7013273E0,5.697506E0,8.642847E-1,0E0,2.3559127E0,0E0,0E0,0E0,1.1247296E0,0E0,0E0,0E0,0E0,0E0,0E0,0E0,0E0,0E0,0E0,0E0,0E0,0E0,0E0],"parents":[2147483647,0,0,1,1,2,2,3,3,6,6,7,7,9,9,10,10,11,11,12,12,13,13,14,14,15,15,16,16,17,17,19,19,20,20,21,21,22,22,24,24,28,28],"right_children":[2,4,6,8,-1,-1,10,12,-1,14,16,18,20,22,24,26,28,30,-1,32,34,36,38,-1,40,-1,-1,-1,42,-1,-1,-1,-1,-1,-1,-1,-1,-1,-1,-1,-1,-1,-1],"split_conditions":[4.91E2,3.03E2,5.98E2,2.96E2,-4.552023E-2,1.7545871E-1,1.9E0,1E0,7.236842E-2,2E0,5.8E1,1.52E2,1.13E2,2.38E2,1.04E2,2.24E2,1E0,1.1E2,-0E0,1.29E2,2.28E2,1.05E2,8.51E2,7.236842E-2,1.51E2,-3.4793813E-2,7.236842E-2,-4.1845493E-2,8.14E2,-5.1369863E-3,-4.3766577E-2,-2.6315792E-2,6.185567E-2,-2.6470589E-2,6.2370063E-3,1.7487047E-2,1.00247525E-1,-3.0821918E-2,2.3195876E-2,-8.823529E-3,7.236842E-2,3.9473683E-2,-3.0821918E-2],"split_indices":[0,0,0,0,0,0,11,2,0,8,1,5,9,6,5,6,7,5,0,5,6,9,0,0,9,0,0,0,0,0,0,0,0,0,0,0,0,0,0,0,0,0,0],"split_type":[0,0,0,0,0,0,0,0,0,0,0,0,0,0,0,0,0,0,0,0,0,0,0,0,0,0,0,0,0,0,0,0,0,0,0,0,0,0,0,0,0,0,0],"sum_hessian":[1.7664001E2,9.0880005E1,8.576001E1,5.7280003E1,3.3600002E1,2.0800001E1,6.496001E1,5.6000004E1,1.2800001E0,4.9280003E1,1.5680001E1,1.76E1,3.84E1,3.0720001E1,1.8560001E1,4.1600003E0,1.152E1,1.6000002E1,1.6000001E0,4.1600003E0,3.424E1,2.5920002E1,4.8E0,1.2800001E0,1.728E1,2.88E0,1.2800001E0,8.320001E0,3.2000003E0,1.9200001E0,1.4080001E1,1.2800001E0,2.88E0,1.6000002E1,1.8240002E1,6.7200003E0,1.92E1,1.9200001E0,2.88E0,1.6000002E1,1.2800001E0,1.2800001E0,1.9200001E0],"tree_param":{"num_deleted":"0","num_feature":"15","num_nodes":"43","size_leaf_vector":"1"}},{"base_weights":[-2.668318E-1,-4.5083418E-1,5.1546387E-2,-5.6224895E-1,-1.6638935E-2,5.072464E-1,-6.7720085E-2,3.0927834E-1,-5.947441E-1,5.7692308E-2,-1.0695186E-1,2.6936024E-1,9.760274E-2,-2.2187822E-1,3.2467532E-1,7.236842E-2,-2.8846154E-2,-6.059897E-1,6.578948E-3,-3.4954405E-1,2.1400777E-1,5.990783E-1,-3.5714284E-2,-3.7184593E-1,2.6970953E-1,6.401384E-1,-3.7190083E-2,-4.6309695E-2,-1.6853932E-1,1.12359546E-1,-4.7169808E-1,6.896551E-1,-3.2846713E-1,1.3071895E-1,9.269663E-2,-2.534113E-1,-4.245283E-2,8.2474226E-1,-8.8757396E-2,9.452736E-1,-4.4247787E-2,6.578948E-3,-2.6315792E-2,-2.6315792E-2,3.9473683E-2,-9.259259E-3,-4.1267943E-2,-5.1369863E-3,8.118557E-2,-3.5714284E-2,6.578948E-3,7.236842E-2,-2.1694215E-2,-3.4232363E-2,-5.0505046E-3,8.6538464E-2,6.578948E-3,-3.77907E-2,5.7692308E-2,9.558824E-2,-5.1369863E-3,2.8846154E-2,-3.0821918E-2],"categories":[],"categories_nodes":[],"categories_segments":[],"categories_sizes":[],"default_left":[0,0,0,0,0,0,0,0,0,0,0,0,0,0,0,0,0,0,0,0,0,0,0,0,0,0,0,0,0,0,0,0,0,0,0,0,0,0,0,0,0,0,0,0,0,0,0,0,0,0,0,0,0,0,0,0,0,0,0,0,0,0,0],"id":2,"left_children":[1,3,5,7,9,11,13,15,17,-1,19,21,-1,23,25,-1,-1,27,-1,29,31,33,-1,35,37,39,-1,-1,41,43,45,47,49,51,-1,53,-1,55,57,59,61,-1,-1,-1,-1,-1,-1,-1,-1,-1,-1,-1,-1,-1,-1,-1,-1,-1,-1,-1,-1,-1,-1],"loss_changes":[1.0429811E1,5.4416256E0,3.6192589E0,2.722578E0,1.7884904E0,2.2564342E0,3.287737E0,2.1362882E0,7.190151E-1,0E0,1.8220353E0,3.2056355E0,0E0,2.9577665E0,4.30373E0,0E0,0E0,3.2494545E-1,0E0,7.9553163E-1,2.8790443E0,2.4275696E0,0E0,5.4929113E-1,1.991185E0,2.4559045E0,0E0,0E0,1.9712201E-1,8.6733687E-1,2.219925E-1,1.80147E0,3.7868392E-1,2.4231904E0,0E0,7.44432E-1,0E0,8.399067E-1,2.7952845E0,2.7707949E0,8.6891645E-1,0E0,0E0,0E0,0E0,0E0,0E0,0E0,0E0,0E0,0E0,0E0,0E0,0E0,0E0,0E0,0E0,0E0,0E0,0E0,0E0,0E0,0E0],"parents":[2147483647,0,0,1,1,2,2,3,3,4,4,5,5,6,6,7,7,8,8,10,10,11,11,13,13,14,14,17,17,19,19,20,20,21,21,23,23,24,24,25,25,28,28,29,29,30,30,31,31,32,32,33,33,35,35,37,37,38,38,39,39,40,40],"right_children":[2,4,6,8,10,12,14,16,18,-1,20,22,-1,24,26,-1,-1,28,-1,30,32,34,-1,36,38,40,-1,-1,42,44,46,48,50,52,-1,54,-1,56,58,60,62,-1,-1,-1,-1,-1,-1,-1,-1,-1,-1,-1,-1,-1,-1,-1,-1,-1,-1,-1,-1,-1,-1],"split_conditions":[5.98E2,1E0,6.59E2,1E0,1.6E1,6.52E2,1.9E0,1E0,6.7E1,5.7692308E-2,1.34E2,1E0,9.760274E-2,8.57E2,1.48E2,7.236842E-2,-2.8846154E-2,2.8E0,6.578948E-3,7.2E1,1.42E2,2E0,-3.5714284E-2,1E0,1E-1,8.07E2,-3.7190083E-2,-4.6309695E-2,5.41E2,5.2E1,2.13E2,9E-1,2.07E2,1E2,9.269663E-2,7.23E2,-4.245283E-2,6.5E1,6.3E1,2E0,1.29E2,6.578948E-3,-2.6315792E-2,-2.6315792E-2,3.9473683E-2,-9.259259E-3,-4.1267943E-2,-5.1369863E-3,8.118557E-2,-3.5714284E-2,6.578948E-3,7.236842E-2,-2.1694215E-2,-3.4232363E-2,-5.0505046E-3,8.6538464E-2,6.578948E-3,-3.77907E-2,5.7692308E-2,9.558824E-2,-5.1369863E-3,2.8846154E-2,-3.0821918E-2],"split_indices":[0,13,0,12,0,0,11,4,1,0,5,4,0,0,5,0,0,11,0,0,5,12,0,4,11,0,0,0,0,0,6,11,0,9,0,0,0,1,1,12,5,0,0,0,0,0,0,0,0,0,0,0,0,0,0,0,0,0,0,0,0,0,0],"split_type":[0,0,0,0,0,0,0,0,0,0,0,0,0,0,0,0,0,0,0,0,0,0,0,0,0,0,0,0,0,0,0,0,0,0,0,0,0,0,0,0,0,0,0,0,0,0,0,0,0,0,0,0,0,0,0,0,0,0,0,0,0,0,0],"sum_hessian":[1.7664001E2,1.1168001E2,6.496001E1,8.864001E1,2.304E1,1.2800001E1,5.2160004E1,2.88E0,8.576001E1,1.6000001E0,2.1440002E1,1.0880001E1,1.9200001E0,3.7760002E1,1.4400001E1,1.2800001E0,1.6000001E0,8.448E1,1.2800001E0,1.2160001E1,9.280001E0,7.6800003E0,3.2000003E0,2.9120003E1,8.64E0,1.056E1,3.8400002E0,8.1920006E1,2.5600002E0,2.5600002E0,9.6E0,4.8E0,4.4800005E0,5.1200004E0,2.5600002E0,1.952E1,9.6E0,2.88E0,5.76E0,7.0400004E0,3.5200002E0,1.2800001E0,1.2800001E0,1.2800001E0,1.2800001E0,2.2400002E0,7.3600006E0,1.9200001E0,2.88E0,3.2000003E0,1.2800001E0,1.2800001E0,3.8400002E0,8.64E0,1.0880001E1,1.6000001E0,1.2800001E0,4.1600003E0,1.6000001E0,5.1200004E0,1.9200001E0,1.6000001E0,1.9200001E0],"tree_param":{"num_deleted":"0","num_feature":"15","num_nodes":"63","size_leaf_vector":"1"}},{"base_weights":[-2.780905E-1,-4.3672296E-1,1.0158013E-1,-5.5056614E-1,6.655574E-2,1.1313868E0,-1.6433854E-2,5.154639E-2,-5.6850135E-1,-1.3035381E-1,9.269663E-2,2.0547945E-2,1.1376405E-1,-1.7747857E-1,2.9411763E-1,-2.8846154E-2,3.9473683E-2,-5.779405E-1,6.578948E-3,-2.6258203E-1,4.7619045E-1,-2.9126212E-1,5.371901E-1,4.8158637E-1,-3.4793813E-2,-2.5423726E-1,-5.9652925E-1,8.58369E-2,-4.2168673E-2,5.7692308E-2,-0E0,-3.7890044E-1,4.6232875E-2,-5.1369863E-3,7.191781E-2,7.4297184E-1,-1.16279066E-1,-3.8793102E-2,3.9473683E-2,-1.9911505E-2,-4.5500673E-2,5.0561797E-2,-1.775148E-2,2.8846154E-2,-3.3175357E-2,8.426966E-3,7.094595E-2,2.8846154E-2,-3.3707865E-2],"categories":[],"categories_nodes":[],"categories_segments":[],"categories_sizes":[],"default_left":[0,0,0,0,0,0,0,0,0,0,0,0,0,0,0,0,0,0,0,0,0,0,0,0,0,0,0,0,0,0,0,0,0,0,0,0,0,0,0,0,0,0,0,0,0,0,0,0,0],"id":3,"left_children":[1,3,5,7,9,11,13,15,17,19,-1,-1,-1,21,23,-1,-1,25,-1,27,29,31,33,35,-1,37,39,41,-1,-1,-1,43,-1,-1,-1,45,47,-1,-1,-1,-1,-1,-1,-1,-1,-1,-1,-1,-1],"loss_changes":[1.07432785E1,7.2260036E0,6.4792128E0,1.1355572E0,5.6967034E0,1.3955913E0,2.4868166E0,1.0058851E0,6.673889E-1,1.847784E0,0E0,0E0,0E0,2.8139205E0,2.6392508E0,0E0,0E0,4.3971252E-1,0E0,1.9568698E0,5.8608055E-1,2.5277715E0,1.3019359E0,2.2929716E0,0E0,1.7256758E0,1.4862823E-1,1.9280062E0,0E0,0E0,0E0,1.4740171E0,0E0,0E0,0E0,1.1685734E0,1.033949E0,0E0,0E0,0E0,0E0,0E0,0E0,0E0,0E0,0E0,0E0,0E0,0E0],"parents":[2147483647,0,0,1,1,2,2,3,3,4,4,5,5,6,6,7,7,8,8,9,9,13,13,14,14,17,17,19,19,20,20,21,21,22,22,23,23,25,25,26,26,27,27,31,31,35,35,36,36],"right_children":[2,4,6,8,10,12,14,16,18,20,-1,-1,-1,22,24,-1,-1,26,-1,28,30,32,34,36,-1,38,40,42,-1,-1,-1,44,-1,-1,-1,46,48,-1,-1,-1,-1,-1,-1,-1,-1,-1,-1,-1,-1],"split_conditions":[6.59E2,1E0,9E1,1E0,2.8E0,1.38E2,1.36E2,4.75E2,6.7E1,3.05E2,9.269663E-2,2.0547945E-2,1.1376405E-1,2.72E2,1.41E2,-2.8846154E-2,3.9473683E-2,3.8E1,6.578948E-3,1.29E2,1.48E2,7E1,2E0,1E0,-3.4793813E-2,3E1,9.6E1,2.13E2,-4.2168673E-2,5.7692308E-2,-0E0,6.69E2,4.6232875E-2,-5.1369863E-3,7.191781E-2,1E-1,1.44E2,-3.8793102E-2,3.9473683E-2,-1.9911505E-2,-4.5500673E-2,5.0561797E-2,-1.775148E-2,2.8846154E-2,-3.3175357E-2,8.426966E-3,7.094595E-2,2.8846154E-2,-3.3707865E-2],"split_indices":[0,13,9,14,11,5,5,0,1,6,0,0,0,6,9,0,0,0,0,5,9,1,8,4,0,0,9,6,0,0,0,0,0,0,0,11,5,0,0,0,0,0,0,0,0,0,0,0,0],"split_type":[0,0,0,0,0,0,0,0,0,0,0,0,0,0,0,0,0,0,0,0,0,0,0,0,0,0,0,0,0,0,0,0,0,0,0,0,0,0,0,0,0,0,0,0,0,0,0,0,0],"sum_hessian":[1.7664001E2,1.2448001E2,5.2160004E1,1.0144001E2,2.304E1,4.4800005E0,4.7680004E1,2.88E0,9.8560005E1,2.0480001E1,2.5600002E0,1.9200001E0,2.5600002E0,3.1680002E1,1.6000002E1,1.6000001E0,1.2800001E0,9.728001E1,1.2800001E0,1.728E1,3.2000003E0,2.7840002E1,3.8400002E0,1.3120001E1,2.88E0,6.0800004E0,9.1200005E1,8.320001E0,8.960001E0,1.6000001E0,1.6000001E0,2.5920002E1,1.9200001E0,1.9200001E0,1.9200001E0,8.960001E0,4.1600003E0,4.8E0,1.2800001E0,3.5200002E0,8.768001E1,2.5600002E0,5.76E0,1.6000001E0,2.4320002E1,2.5600002E0,6.4000006E0,1.6000001E0,2.5600002E0],"tree_param":{"num_deleted":"0","num_feature":"15","num_nodes":"49","size_leaf_vector":"1"}},{"base_weights":[-5.201531E-1,-5.776397E-1,3.4013603E-2,-5.8928114E-1,-4.4247787E-2,-9.77995E-2,7.236842E-2,-5.953905E-1,6.578948E-3,3.9473683E-2,-3.2407407E-2,2.9411763E-1,-3.024911E-1,-2.8497407E-1,-4.5557935E-2,7.142857E-1,-3.0821918E-2,2.3809522E-1,-4.104478E-2,-3.9596274E-2,3.9473683E-2,6.578948E-3,7.191781E-2,3.9473683E-2,-5.1369863E-3],"categories":[],"categories_nodes":[],"categories_segments":[],"categories_sizes":[],"default_left":[0,0,0,0,0,0,0,0,0,0,0,0,0,0,0,0,0,0,0,0,0,0,0,0,0],"id":4,"left_children":[1,3,5,7,9,11,-1,13,-1,-1,-1,15,17,19,-1,21,-1,23,-1,-1,-1,-1,-1,-1,-1],"loss_changes":[5.678753E0,9.7364426E-1,2.2588778E0,7.035713E-1,1.2276677E0,1.4014021E0,0E0,4.1109848E-1,0E0,0E0,0E0,2.106596E0,1.6175855E0,1.799667E0,0E0,5.5961823E-1,0E0,4.0718234E-1,0E0,0E0,0E0,0E0,0E0,0E0,0E0],"parents":[2147483647,0,0,1,1,2,2,3,3,4,4,5,5,7,7,11,11,12,12,13,13,15,15,17,17],"right_children":[2,4,6,8,10,12,-1,14,-1,-1,-1,16,18,20,-1,22,-1,24,-1,-1,-1,-1,-1,-1,-1],"split_conditions":[2.4E0,3E0,8.46E2,1.9E2,1.1E0,1E0,7.236842E-2,9.3E1,6.578948E-3,3.9473683E-2,-3.2407407E-2,2.44E2,1E0,9E1,-4.5557935E-2,3.8E1,-3.0821918E-2,7.39E2,-4.104478E-2,-3.9596274E-2,3.9473683E-2,6.578948E-3,7.191781E-2,3.9473683E-2,-5.1369863E-3],"split_indices":[11,13,0,5,11,8,0,9,0,0,0,6,12,9,0,0,0,0,0,0,0,0,0,0,0],"split_type":[0,0,0,0,0,0,0,0,0,0,0,0,0,0,0,0,0,0,0,0,0,0,0,0,0],"sum_hessian":[1.7664001E2,1.6000002E2,1.6640001E1,1.5648001E2,3.5200002E0,1.5360001E1,1.2800001E0,1.5520001E2,1.2800001E0,1.2800001E0,2.2400002E0,5.1200004E0,1.0240001E1,6.7200003E0,1.4848001E2,3.2000003E0,1.9200001E0,3.2000003E0,7.0400004E0,5.4400005E0,1.2800001E0,1.2800001E0,1.9200001E0,1.2800001E0,1.9200001E0],"tree_param":{"num_deleted":"0","num_feature":"15","num_nodes":"25","size_leaf_vector":"1"}},{"base_weights":[7.284773E-1,1.4511551E0,-1.3508034E-1,1.8196694E0,2.1833871E-1,-4.870042E-1,2.0818731E-1,1.9765471E0,6.9316024E-1,-3.7824696E-1,1.042559E0,-5.70887E-1,-1.3809563E-1,-5.1021945E-2,6.6942847E-1,1.4986016E-1,3.7916027E-2,1.3925024E0,-1.735467E-1,2.0373162E-2,-4.9600738E-1,-4.512633E-2,1.19950294E-1,1.9913103E-5,-4.4940356E-2,-4.2257884E-1,6.85957E-2,9.070733E-1,-1.8203385E-1,1.3000365E-1,1.0244561E0,2.6897911E-2,1.2674046E-1,-3.5448525E-2,2.708243E-2,8.8427834E-5,-4.2456497E-2,-3.0504532E-2,2.7665334E-2,-3.9716087E-2,6.4271376E-3,9.888045E-2,6.3458486E-3,-2.3943058E-1,3.9948057E-2,6.8088755E-2,-1.9233598E-1,3.6291805E-1,1.2298505E0,3.1250343E-3,-3.326495E-2,1.4000909E-2,-3.457336E-2,3.794543E-2,4.926069E-3,1.0352295E-1,1.3655731E-2],"categories":[],"categories_nodes":[],"categories_segments":[],"categories_sizes":[],"default_left":[0,0,0,0,0,0,0,0,0,0,0,0,0,0,0,0,0,0,0,0,0,0,0,0,0,0,0,0,0,0,0,0,0,0,0,0,0,0,0,0,0,0,0,0,0,0,0,0,0,0,0,0,0,0,0,0,0],"id":5,"left_children":[1,3,5,7,9,11,13,15,17,19,21,23,25,27,29,-1,-1,31,33,-1,35,37,-1,-1,-1,39,-1,41,43,45,47,-1,-1,-1,-1,-1,-1,-1,-1,-1,-1,-1,-1,49,-1,-1,51,53,55,-1,-1,-1,-1,-1,-1,-1,-1],"loss_changes":[1.1572822E2,4.5428543E1,1.0400767E1,1.2329529E1,1.23673525E1,1.1620178E0,5.2779403E0,1.1335144E0,6.918667E0,1.2719147E0,6.425105E0,5.4781246E-1,3.2424297E0,3.8063495E0,2.9024582E0,0E0,0E0,1.302351E0,1.0995235E0,0E0,4.5130014E-1,8.2733226E-1,0E0,0E0,0E0,4.907503E-1,0E0,1.1255245E0,1.2084908E0,2.039287E0,8.3281326E-1,0E0,0E0,0E0,0E0,0E0,0E0,0E0,0E0,0E0,0E0,0E0,0E0,1.4575521E0,0E0,0E0,7.054435E-1,1.2189311E-1,8.1514263E-1,0E0,0E0,0E0,0E0,0E0,0E0,0E0,0E0],"parents":[2147483647,0,0,1,1,2,2,3,3,4,4,5,5,6,6,7,7,8,8,9,9,10,10,11,11,12,12,13,13,14,14,17,17,18,18,20,20,21,21,25,25,27,27,28,28,29,29,30,30,43,43,46,46,47,47,48,48],"right_children":[2,4,6,8,10,12,14,16,18,20,22,24,26,28,30,-1,-1,32,34,-1,36,38,-1,-1,-1,40,-1,42,44,46,48,-1,-1,-1,-1,-1,-1,-1,-1,-1,-1,-1,-1,50,-1,-1,52,54,56,-1,-1,-1,-1,-1,-1,-1,-1],"split_conditions":[4.93E2,1E0,7.05E2,2E0,1E0,1E0,1E0,2.1E0,9E-1,1.12E2,2E0,9.6E1,2E0,5.2E1,1.33E2,1.4986016E-1,3.7916027E-2,1E0,2E0,2.0373162E-2,1.06E2,6.2E1,1.19950294E-1,1.9913103E-5,-4.4940356E-2,2E0,6.85957E-2,7.82E2,3.07E2,7.27E2,7.58E2,2.6897911E-2,1.2674046E-1,-3.5448525E-2,2.708243E-2,8.8427834E-5,-4.2456497E-2,-3.0504532E-2,2.7665334E-2,-3.9716087E-2,6.4271376E-3,9.888045E-2,6.3458486E-3,2.08E2,3.9948057E-2,6.8088755E-2,1E-1,7.34E2,2.72E2,3.1250343E-3,-3.326495E-2,1.4000909E-2,-3.457336E-2,3.794543E-2,4.926069E-3,1.0352295E-1,1.3655731E-2],"split_indices":[0,13,0,14,4,4,4,11,11,5,12,5,12,1,9,0,0,4,4,0,9,1,0,0,0,8,0,0,6,0,0,0,0,0,0,0,0,0,0,0,0,0,0,6,0,0,11,0,6,0,0,0,0,0,0,0,0],"split_type":[0,0,0,0,0,0,0,0,0,0,0,0,0,0,0,0,0,0,0,0,0,0,0,0,0,0,0,0,0,0,0,0,0,0,0,0,0,0,0,0,0,0,0,0,0,0,0,0,0,0,0,0,0,0,0,0,0],"sum_hessian":[1.8412585E2,9.986897E1,8.425688E1,7.651964E1,2.3349335E1,4.139712E1,4.2859764E1,6.6503746E1,1.0015889E1,1.3859014E1,9.490321E0,3.2860706E1,8.536413E0,2.8008738E1,1.4851027E1,6.518868E1,1.315061E0,5.2074003E0,4.808489E0,1.9255679E0,1.1933445E1,3.524344E0,5.9659767E0,1.5990658E0,3.1261642E1,7.191546E0,1.3448669E0,2.656687E0,2.535205E1,6.436962E0,8.414064E0,1.6560082E0,3.551392E0,3.1578403E0,1.6506484E0,1.5957017E0,1.0337744E1,1.8905921E0,1.6337521E0,5.906613E0,1.284933E0,1.3690125E0,1.2876745E0,2.4082893E1,1.269158E0,1.3537507E0,5.0832114E0,2.6490111E0,5.7650533E0,1.0465387E1,1.3617506E1,2.2350235E0,2.8481882E0,1.3144164E0,1.3345948E0,4.763647E0,1.0014064E0],"tree_param":{"num_deleted":"0","num_feature":"15","num_nodes":"57","size_leaf_vector":"1"}},{"base_weights":[2.5160667E-1,-3.1480736E-1,8.1002975E-1,-1.4499778E-1,-4.4936154E-2,1.4870091E-1,3.7199846E-1,-1.8640445E-1,6.826071E-2,5.709771E-1,-2.801649E-1,-4.7440958E-1,-4.9102183E-2,8.246841E-1,1.1409926E-1,7.610959E-2,-4.0728816E-1,-5.207391E-1,3.9113898E-4,4.3300045E-1,-1.2050359E-1,9.37205E-1,-2.2849192E-1,-5.3441487E-3,8.7467276E-2,-3.445279E-2,6.917082E-2,-4.1339077E-2,2.1788916E-3,-4.320658E-2,-4.5275358E-3,-2.6046397E-2,5.7301376E-2,-2.5815183E-2,5.916985E-3,-1.3174507E-2,7.860343E-2,-3.183497E-2,1.3455306E-2,5.7613213E-2,-1.2073144E-2,3.8747806E-2,-3.0526876E-2],"categories":[],"categories_nodes":[],"categories_segments":[],"categories_sizes":[],"default_left":[0,0,0,0,0,0,0,0,0,0,0,0,0,0,0,0,0,0,0,0,0,0,0,0,0,0,0,0,0,0,0,0,0,0,0,0,0,0,0,0,0,0,0],"id":6,"left_children":[1,3,5,7,-1,-1,9,11,-1,13,15,17,19,21,23,25,27,29,-1,31,33,35,37,39,-1,-1,-1,-1,41,-1,-1,-1,-1,-1,-1,-1,-1,-1,-1,-1,-1,-1,-1],"loss_changes":[5.722138E1,4.2650433E0,4.5990417E1,2.692761E0,0E0,0E0,8.914296E0,2.2069602E0,0E0,5.9357147E0,7.756705E-1,4.0473604E-1,1.4052553E0,4.1587143E0,2.4861832E0,2.7646186E0,7.2450376E-1,3.858714E-1,0E0,1.6312509E0,1.5891815E0,3.917839E0,3.9725894E-1,2.3769255E0,0E0,0E0,0E0,0E0,1.0919877E0,0E0,0E0,0E0,0E0,0E0,0E0,0E0,0E0,0E0,0E0,0E0,0E0,0E0,0E0],"parents":[2147483647,0,0,1,1,2,2,3,3,6,6,7,7,9,9,10,10,11,11,12,12,13,13,14,14,15,15,16,16,17,17,19,19,20,20,21,21,22,22,23,23,28,28],"right_children":[2,4,6,8,-1,-1,10,12,-1,14,16,18,20,22,24,26,28,30,-1,32,34,36,38,40,-1,-1,-1,-1,42,-1,-1,-1,-1,-1,-1,-1,-1,-1,-1,-1,-1,-1,-1],"split_conditions":[4.91E2,3.03E2,5.98E2,2.96E2,-4.4936154E-2,1.4870091E-1,1.9E0,1E0,6.826071E-2,2E0,5.8E1,1.52E2,1.13E2,1.51E2,1.57E2,2.24E2,1E0,1.6E0,3.9113898E-4,1.29E2,2.28E2,8.8E1,5.6E1,1.16E2,8.7467276E-2,-3.445279E-2,6.917082E-2,-4.1339077E-2,2.11E2,-4.320658E-2,-4.5275358E-3,-2.6046397E-2,5.7301376E-2,-2.5815183E-2,5.916985E-3,-1.3174507E-2,7.860343E-2,-3.183497E-2,1.3455306E-2,5.7613213E-2,-1.2073144E-2,3.8747806E-2,-3.0526876E-2],"split_indices":[0,0,0,0,0,0,11,2,0,8,1,5,9,9,9,6,7,11,0,5,6,9,1,5,0,0,0,0,6,0,0,0,0,0,0,0,0,0,0,0,0,0,0],"split_type":[0,0,0,0,0,0,0,0,0,0,0,0,0,0,0,0,0,0,0,0,0,0,0,0,0,0,0,0,0,0,0,0,0,0,0,0,0,0,0,0,0,0,0],"sum_hessian":[1.791031E2,8.913194E1,8.997116E1,5.6750374E1,3.2381573E1,2.3509031E1,6.646213E1,5.5399673E1,1.3507024E0,5.1020103E1,1.5442026E1,1.7092094E1,3.830758E1,3.228629E1,1.8733814E1,4.166454E0,1.1275572E1,1.5508339E1,1.5837549E0,4.2883444E0,3.4019234E1,2.9269285E1,3.0170045E0,1.7717367E1,1.0164473E0,2.8316307E0,1.334823E0,8.087323E0,3.1882486E0,1.3619561E1,1.8887779E0,1.2627072E0,3.0256371E0,1.56903515E1,1.8328882E1,2.5981815E0,2.6671104E1,2.0104542E0,1.0065502E0,2.3083735E0,1.5408994E1,1.2961557E0,1.892093E0],"tree_param":{"num_deleted":"0","num_feature":"15","num_nodes":"43","size_leaf_vector":"1"}},{"base_weights":[-2.5799486E-1,-4.406898E-1,4.8782527E-2,-5.532185E-1,-1.7024107E-2,4.791654E-1,-6.6434704E-2,2.967836E-1,-5.864441E-1,5.4403342E-2,-1.0495955E-1,2.5589222E-1,8.987105E-2,-2.1616201E-1,3.0486664E-1,8.8074915E-2,-3.0761836E-2,-5.980158E-1,6.9435723E-3,-3.4337446E-1,2.0350005E-1,5.6485045E-1,-3.5289105E-2,-3.6498144E-1,2.6038328E-1,5.937498E-1,-3.661792E-2,-4.573031E-2,-1.6410875E-1,1.073971E-1,-4.6531606E-1,6.471908E-1,-3.2266825E-1,1.2351979E-1,8.577959E-2,-2.4851438E-1,-4.1937724E-2,7.7978605E-1,-8.587493E-2,8.683903E-1,-4.630071E-2,-2.6199523E-2,7.078067E-3,3.9283745E-2,-2.6546396E-2,-9.295014E-3,-4.0788796E-2,-5.792818E-3,7.643965E-2,7.0105256E-3,-3.5406075E-2,6.843117E-2,-2.149876E-2,-3.37495E-2,-5.0078765E-3,8.263975E-2,5.4298663E-3,-3.741045E-2,5.53097E-2,8.7047376E-2,-5.3916583E-3,2.7531695E-2,-3.0535018E-2],"categories":[],"categories_nodes":[],"categories_segments":[],"categories_sizes":[],"default_left":[0,0,0,0,0,0,0,0,0,0,0,0,0,0,0,0,0,0,0,0,0,0,0,0,0,0,0,0,0,0,0,0,0,0,0,0,0,0,0,0,0,0,0,0,0,0,0,0,0,0,0,0,0,0,0,0,0,0,0,0,0,0,0],"id":7,"left_children":[1,3,5,7,9,11,13,15,17,-1,19,21,-1,23,25,-1,-1,27,-1,29,31,33,-1,35,37,39,-1,-1,41,43,45,47,49,51,-1,53,-1,55,57,59,61,-1,-1,-1,-1,-1,-1,-1,-1,-1,-1,-1,-1,-1,-1,-1,-1,-1,-1,-1,-1,-1,-1],"loss_changes":[9.8164625E0,5.217308E0,3.3111026E0,2.6196022E0,1.645551E0,1.955163E0,3.0148234E0,2.914453E0,7.128124E-1,0E0,1.7148281E0,2.9636629E0,0E0,2.8173327E0,3.8773828E0,0E0,0E0,3.1905365E-1,0E0,7.639184E-1,2.6319354E0,2.1294868E0,0E0,5.3201437E-1,1.8147955E0,2.1370802E0,0E0,0E0,2.0224643E-1,8.7271774E-1,2.117064E-1,1.6858737E0,3.808534E-1,2.256233E0,0E0,7.1492887E-1,0E0,8.2848454E-1,2.656578E0,2.3910193E0,8.2532454E-1,0E0,0E0,0E0,0E0,0E0,0E0,0E0,0E0,0E0,0E0,0E0,0E0,0E0,0E0,0E0,0E0,0E0,0E0,0E0,0E0,0E0,0E0],"parents":[2147483647,0,0,1,1,2,2,3,3,4,4,5,5,6,6,7,7,8,8,10,10,11,11,13,13,14,14,17,17,19,19,20,20,21,21,23,23,24,24,25,25,28,28,29,29,30,30,31,31,32,32,33,33,35,35,37,37,38,38,39,39,40,40],"right_children":[2,4,6,8,10,12,14,16,18,-1,20,22,-1,24,26,-1,-1,28,-1,30,32,34,-1,36,38,40,-1,-1,42,44,46,48,50,52,-1,54,-1,56,58,60,62,-1,-1,-1,-1,-1,-1,-1,-1,-1,-1,-1,-1,-1,-1,-1,-1,-1,-1,-1,-1,-1,-1],"split_conditions":[5.98E2,1E0,6.59E2,1E0,1.6E1,6.52E2,1.9E0,1.45E2,6.7E1,5.4403342E-2,1.34E2,1E0,8.987105E-2,8.57E2,1.48E2,8.8074915E-2,-3.0761836E-2,2.8E0,6.9435723E-3,7.2E1,1.42E2,2E0,-3.5289105E-2,1E0,1E-1,8.07E2,-3.661792E-2,-4.573031E-2,2.33E2,1.22E2,2.13E2,2E0,2.04E2,1E2,8.577959E-2,7.23E2,-4.1937724E-2,2.24E2,6.3E1,2E0,1.29E2,-2.6199523E-2,7.078067E-3,3.9283745E-2,-2.6546396E-2,-9.295014E-3,-4.0788796E-2,-5.792818E-3,7.643965E-2,7.0105256E-3,-3.5406075E-2,6.843117E-2,-2.149876E-2,-3.37495E-2,-5.0078765E-3,8.263975E-2,5.4298663E-3,-3.741045E-2,5.53097E-2,8.7047376E-2,-5.3916583E-3,2.7531695E-2,-3.0535018E-2],"split_indices":[0,13,0,12,0,0,11,9,1,0,5,4,0,0,5,0,0,11,0,0,5,12,0,4,11,0,0,0,6,5,6,13,6,9,0,0,0,6,1,12,5,0,0,0,0,0,0,0,0,0,0,0,0,0,0,0,0,0,0,0,0,0,0],"split_type":[0,0,0,0,0,0,0,0,0,0,0,0,0,0,0,0,0,0,0,0,0,0,0,0,0,0,0,0,0,0,0,0,0,0,0,0,0,0,0,0,0,0,0,0,0,0,0,0,0,0,0,0,0,0,0,0,0,0,0,0,0,0,0],"sum_hessian":[1.7376439E2,1.0863345E2,6.5130936E1,8.559343E1,2.3040026E1,1.3086981E1,5.2043957E1,2.921483E0,8.267194E1,1.6723231E0,2.1367702E1,1.102099E1,2.06599E0,3.738591E1,1.4658046E1,1.0084801E0,1.913003E0,8.1404E1,1.267951E0,1.1988415E1,9.379289E0,7.888335E0,3.132655E0,2.8667501E1,8.7184105E0,1.0928703E1,3.729343E0,7.88682E1,2.5357969E0,2.577959E0,9.410456E0,4.9636717E0,4.415617E0,5.1644135E0,2.7239218E0,1.9344896E1,9.322605E0,2.9864964E0,5.7319136E0,7.39767E0,3.5310335E0,1.2725148E0,1.2632821E0,1.2838778E0,1.2940813E0,2.2421422E0,7.168313E0,1.9529467E0,3.010725E0,1.2654628E0,3.1501544E0,1.3477505E0,3.816663E0,8.474321E0,1.0870574E1,1.6689599E0,1.3175366E0,4.079883E0,1.6520306E0,5.4648356E0,1.932834E0,1.637586E0,1.8934475E0],"tree_param":{"num_deleted":"0","num_feature":"15","num_nodes":"63","size_leaf_vector":"1"}},{"base_weights":[-2.689232E-1,-4.2657852E-1,9.693913E-2,-5.415465E-1,6.4035825E-2,1.0434217E0,-1.6543997E-2,5.6203533E-2,-5.5988383E-1,-1.2748832E-1,1.1500484E0,1.8350068E-2,1.05383776E-1,-1.7156292E-1,2.746799E-1,3.988622E-2,-2.8703133E-2,-5.6956726E-1,6.943573E-3,-2.579234E-1,4.5730835E-1,1.0896602E-1,1.3093546E-2,-2.8373346E-1,5.085908E-1,4.494996E-1,-3.439546E-2,-2.4443795E-1,-5.885789E-1,7.9437576E-2,-4.1729506E-2,5.67224E-2,-9.5930236E-4,-3.7146112E-1,4.4777885E-2,-5.3124945E-3,6.772969E-2,-1.2109543E-1,6.942331E-1,3.9187133E-2,-3.8281213E-2,-1.9282416E-2,-4.4921234E-2,3.9104156E-2,-2.469993E-2,2.7458474E-2,-3.261742E-2,1.9668028E-2,-3.244348E-2,1.1987201E-2,7.1856774E-2],"categories":[],"categories_nodes":[],"categories_segments":[],"categories_sizes":[],"default_left":[0,0,0,0,0,0,0,0,0,0,0,0,0,0,0,0,0,0,0,0,0,0,0,0,0,0,0,0,0,0,0,0,0,0,0,0,0,0,0,0,0,0,0,0,0,0,0,0,0,0,0],"id":8,"left_children":[1,3,5,7,9,11,13,15,17,19,21,-1,-1,23,25,-1,-1,27,-1,29,31,-1,-1,33,35,37,-1,39,41,43,-1,-1,-1,45,-1,-1,-1,47,49,-1,-1,-1,-1,-1,-1,-1,-1,-1,-1,-1,-1],"loss_changes":[1.0113433E1,6.928417E0,5.7530355E0,1.1179562E0,5.15876E0,1.3124695E0,2.244251E0,1.0091144E0,6.609287E-1,1.7491374E0,8.429947E-1,0E0,0E0,2.614441E0,2.4227362E0,0E0,0E0,4.4330597E-1,0E0,1.8691688E0,6.085086E-1,0E0,0E0,2.4189048E0,1.1934844E0,2.1043472E0,0E0,1.6860609E0,1.5209961E-1,1.8667915E0,0E0,0E0,0E0,1.3980324E0,0E0,0E0,0E0,7.336296E-1,1.2954683E0,0E0,0E0,0E0,0E0,0E0,0E0,0E0,0E0,0E0,0E0,0E0,0E0],"parents":[2147483647,0,0,1,1,2,2,3,3,4,4,5,5,6,6,7,7,8,8,9,9,10,10,13,13,14,14,17,17,19,19,20,20,23,23,24,24,25,25,27,27,28,28,29,29,33,33,37,37,38,38],"right_children":[2,4,6,8,10,12,14,16,18,20,22,-1,-1,24,26,-1,-1,28,-1,30,32,-1,-1,34,36,38,-1,40,42,44,-1,-1,-1,46,-1,-1,-1,48,50,-1,-1,-1,-1,-1,-1,-1,-1,-1,-1,-1,-1],"split_conditions":[6.59E2,1E0,9E1,1E0,2.8E0,1E-1,1.36E2,2.02E2,6.7E1,3.05E2,1.95E2,1.8350068E-2,1.05383776E-1,2.72E2,1.41E2,3.988622E-2,-2.8703133E-2,3.8E1,6.943573E-3,1.29E2,1.3E0,1.0896602E-1,1.3093546E-2,7E1,2E0,1E-1,-3.439546E-2,1.45E2,9.6E1,2E0,-4.1729506E-2,5.67224E-2,-9.5930236E-4,6.69E2,4.4777885E-2,-5.3124945E-3,6.772969E-2,7.29E2,8.5E1,3.9187133E-2,-3.8281213E-2,-1.9282416E-2,-4.4921234E-2,3.9104156E-2,-2.469993E-2,2.7458474E-2,-3.261742E-2,1.9668028E-2,-3.244348E-2,1.1987201E-2,7.1856774E-2],"split_indices":[0,13,9,14,11,11,5,6,1,6,0,0,0,6,9,0,0,0,0,5,11,0,0,1,8,11,0,9,9,12,0,0,0,0,0,0,0,0,6,0,0,0,0,0,0,0,0,0,0,0,0],"split_type":[0,0,0,0,0,0,0,0,0,0,0,0,0,0,0,0,0,0,0,0,0,0,0,0,0,0,0,0,0,0,0,0,0,0,0,0,0,0,0,0,0,0,0,0,0,0,0,0,0,0,0],"sum_hessian":[1.7361955E2,1.2121872E2,5.2400837E1,9.8121605E1,2.3097113E1,4.7328625E0,4.7667973E1,2.8590453E0,9.526256E1,2.038476E1,2.712353E0,1.9976882E0,2.7351742E0,3.1376894E1,1.629108E1,1.270567E0,1.5884783E0,9.3994606E1,1.267951E0,1.7124258E1,3.2605019E0,1.6963162E0,1.0160367E0,2.7435146E1,3.9417474E0,1.3467382E1,2.8236976E0,5.9581275E0,8.803648E1,8.382904E0,8.741354E0,1.6208253E0,1.6396766E0,2.547592E1,1.9592271E0,1.9288988E0,2.0128486E0,4.194086E0,9.273297E0,1.2858949E0,4.6722326E0,3.4532351E0,8.4583244E1,3.89559E0,4.487314E0,1.6397518E0,2.3836168E1,1.9510602E0,2.2430258E0,3.5959568E0,5.67734E0],"tree_param":{"num_deleted":"0","num_feature":"15","num_nodes":"51","size_leaf_vector":"1"}},{"base_weights":[-5.111094E-1,-5.696875E-1,3.879253E-2,-5.815331E-1,-4.4144873E-2,-9.076608E-2,6.8975806E-2,-5.8778954E-1,6.6980063E-3,3.7712723E-2,-3.20261E-2,2.8013435E-1,-2.9134813E-1,-2.7577418E-1,-4.5008127E-2,6.7456585E-1,-3.0450506E-2,2.3579247E-1,-4.0397592E-2,-3.9047606E-2,3.8344804E-2,6.90966E-2,5.146083E-3,-5.3789625E-3,3.962037E-2],"categories":[],"categories_nodes":[],"categories_segments":[],"categories_sizes":[],"default_left":[0,0,0,0,0,0,0,0,0,0,0,0,0,0,0,0,0,0,0,0,0,0,0,0,0],"id":9,"left_children":[1,3,5,7,9,11,-1,13,-1,-1,-1,15,17,19,-1,21,-1,23,-1,-1,-1,-1,-1,-1,-1],"loss_changes":[5.5762634E0,9.447899E-1,2.0847285E0,6.9200516E-1,1.1609694E0,1.2866244E0,0E0,4.1526031E-1,0E0,0E0,0E0,1.9504123E0,1.5612236E0,1.7287129E0,0E0,5.8103395E-1,0E0,4.164275E-1,0E0,0E0,0E0,0E0,0E0,0E0,0E0],"parents":[2147483647,0,0,1,1,2,2,3,3,4,4,5,5,7,7,11,11,12,12,13,13,15,15,17,17],"right_children":[2,4,6,8,10,12,-1,14,-1,-1,-1,16,18,20,-1,22,-1,24,-1,-1,-1,-1,-1,-1,-1],"split_conditions":[2.4E0,3E0,8.46E2,1.9E2,1.1E0,1E0,6.8975806E-2,9.3E1,6.6980063E-3,3.7712723E-2,-3.20261E-2,2.44E2,1E0,9E1,-4.5008127E-2,1.33E2,-3.0450506E-2,6.3E1,-4.0397592E-2,-3.9047606E-2,3.8344804E-2,6.90966E-2,5.146083E-3,-5.3789625E-3,3.962037E-2],"split_indices":[11,13,0,5,11,8,0,9,0,0,0,6,12,9,0,9,0,1,0,0,0,0,0,0,0],"split_type":[0,0,0,0,0,0,0,0,0,0,0,0,0,0,0,0,0,0,0,0,0,0,0,0,0],"sum_hessian":[1.7142407E2,1.5488863E2,1.6535437E1,1.5137025E2,3.5183806E0,1.5197222E1,1.3382137E0,1.5009422E2,1.2760258E0,1.31969E0,2.1986904E0,5.194801E0,1.0002421E1,6.5891056E0,1.4350513E2,3.3093023E0,1.8854983E0,3.2087688E0,6.7936525E0,5.283737E0,1.3053688E0,1.9819306E0,1.3273716E0,1.9321244E0,1.2766443E0],"tree_param":{"num_deleted":"0","num_feature":"15","num_nodes":"25","size_leaf_vector":"1"}},{"base_weights":[6.705983E-1,1.2895081E0,-1.2895773E-1,1.590759E0,2.0468524E-1,-4.7865057E-1,2.0108761E-1,1.7157882E0,6.3908917E-1,-3.7278217E-1,9.6007335E-1,-5.63723E-1,-1.3224109E-1,-4.7437347E-2,6.2993973E-1,1.7346147E0,1.3370383E-2,1.2610394E0,-1.7437206E-1,1.9743476E-2,-4.9084833E-1,-4.386576E-2,1.08099625E-1,-1.1126593E-4,-4.4442672E-2,-4.1491413E-1,6.469012E-2,8.631436E-1,-1.7629679E-1,1.2712422E-1,9.480281E-1,4.1389648E-2,1.746264E0,1.08792506E-1,1.0979795E-2,-3.6953192E-2,4.9912084E-2,-4.1496664E-2,-2.0530806E-1,5.0761674E-2,-3.329362E-2,-3.9191823E-2,6.142829E-3,9.3305096E-2,6.0702E-3,-2.3341724E-1,3.8958162E-2,6.4543016E-2,-1.875949E-1,4.923805E-1,9.70791E-2,1.3184837E-1,4.185168E-2,7.042716E-3,-2.8969496E-2,2.836032E-3,-3.265842E-2,-3.411982E-2,1.3581297E-2,5.4820005E-2,-2.4174519E-2],"categories":[],"categories_nodes":[],"categories_segments":[],"categories_sizes":[],"default_left":[0,0,0,0,0,0,0,0,0,0,0,0,0,0,0,0,0,0,0,0,0,0,0,0,0,0,0,0,0,0,0,0,0,0,0,0,0,0,0,0,0,0,0,0,0,0,0,0,0,0,0,0,0,0,0,0,0,0,0,0,0],"id":10,"left_children":[1,3,5,7,9,11,13,15,17,19,21,23,25,27,29,31,-1,33,35,-1,37,39,-1,-1,-1,41,-1,43,45,47,49,-1,51,-1,-1,-1,-1,-1,53,-1,-1,-1,-1,-1,-1,55,-1,-1,57,59,-1,-1,-1,-1,-1,-1,-1,-1,-1,-1,-1],"loss_changes":[9.482867E1,3.4942688E1,9.834356E0,8.935928E0,1.1089969E1,1.1414995E0,4.7312655E0,1.83078E0,5.9797044E0,1.2303731E0,5.348422E0,5.3143215E-1,3.012997E0,3.5381644E0,2.479158E0,4.1046143E-2,0E0,1.1762648E0,1.8816193E0,0E0,1.131413E-1,1.6022007E0,0E0,0E0,0E0,4.7213447E-1,0E0,1.0157773E0,1.1588826E0,1.8818389E0,9.094448E-1,0E0,1.7684937E-2,0E0,0E0,0E0,0E0,0E0,2.459067E-1,0E0,0E0,0E0,0E0,0E0,0E0,1.3764546E0,0E0,0E0,6.7732286E-1,1.3719022E0,0E0,0E0,0E0,0E0,0E0,0E0,0E0,0E0,0E0,0E0,0E0],"parents":[2147483647,0,0,1,1,2,2,3,3,4,4,5,5,6,6,7,7,8,8,9,9,10,10,11,11,12,12,13,13,14,14,15,15,17,17,18,18,20,20,21,21,25,25,27,27,28,28,29,29,30,30,32,32,38,38,45,45,48,48,49,49],"right_children":[2,4,6,8,10,12,14,16,18,20,22,24,26,28,30,32,-1,34,36,-1,38,40,-1,-1,-1,42,-1,44,46,48,50,-1,52,-1,-1,-1,-1,-1,54,-1,-1,-1,-1,-1,-1,56,-1,-1,58,60,-1,-1,-1,-1,-1,-1,-1,-1,-1,-1,-1],"split_conditions":[4.93E2,1E0,7.05E2,2E0,2E0,1E0,1E0,2.4E0,9E-1,3E-1,1E0,9.6E1,2E0,5.2E1,1.33E2,3.2E1,1.3370383E-2,2.41E2,3E0,1.9743476E-2,1E0,1.12E2,1.08099625E-1,-1.1126593E-4,-4.4442672E-2,2E0,6.469012E-2,7.82E2,3.07E2,7.27E2,6.1E1,4.1389648E-2,6.7E1,1.08792506E-1,1.0979795E-2,-3.6953192E-2,4.9912084E-2,-4.1496664E-2,1.32E2,5.0761674E-2,-3.329362E-2,-3.9191823E-2,6.142829E-3,9.3305096E-2,6.0702E-3,2.08E2,3.8958162E-2,6.4543016E-2,2.2E2,1E0,9.70791E-2,1.3184837E-1,4.185168E-2,7.042716E-3,-2.8969496E-2,2.836032E-3,-3.265842E-2,-3.411982E-2,1.3581297E-2,5.4820005E-2,-2.4174519E-2],"split_indices":[0,13,0,14,12,4,4,11,11,11,4,5,12,1,9,1,0,6,4,0,4,5,0,0,0,8,0,0,6,0,1,0,1,0,0,0,0,0,5,0,0,0,0,0,0,6,0,0,6,7,0,0,0,0,0,0,0,0,0,0,0],"split_type":[0,0,0,0,0,0,0,0,0,0,0,0,0,0,0,0,0,0,0,0,0,0,0,0,0,0,0,0,0,0,0,0,0,0,0,0,0,0,0,0,0,0,0,0,0,0,0,0,0,0,0,0,0,0,0,0,0,0,0,0,0],"sum_hessian":[1.9029388E2,1.06918816E2,8.337508E1,8.331593E1,2.3602877E1,4.026396E1,4.311112E1,7.293138E1,1.0384554E1,1.3663851E1,9.939026E0,3.1821737E1,8.442224E0,2.7857021E1,1.5254095E1,7.1922516E1,1.0088662E0,5.5732136E0,4.811341E0,1.946783E0,1.1717069E1,3.5150921E0,6.423934E0,1.6042631E0,3.0217474E1,7.028056E0,1.4141679E0,2.7470129E0,2.511001E1,6.4530854E0,8.80101E0,1.1732674E0,7.0749245E1,4.505714E0,1.0674999E0,3.7886615E0,1.0226794E0,8.845162E0,2.8719063E0,1.0077621E0,2.5073302E0,5.7339077E0,1.2941484E0,1.450286E0,1.2967268E0,2.3818966E1,1.2910426E0,1.4168096E0,5.036276E0,4.846659E0,3.9543505E0,6.9583786E1,1.1654623E0,1.2635835E0,1.6083227E0,1.05149975E1,1.3303969E1,2.7837658E0,2.25251E0,3.8284776E0,1.0181817E0],"tree_param":{"num_deleted":"0","num_feature":"15","num_nodes":"61","size_leaf_vector":"1"}},{"base_weights":[2.3683405E-1,-3.05418E-1,7.407359E-1,-1.3910499E-1,-4.4376966E-2,1.2942398E-1,3.4634826E-1,-1.7991287E-1,6.4505674E-2,5.267924E-1,-2.7252442E-1,-4.6466625E-1,-4.780594E-2,7.51293E-1,1.0743284E-1,7.494801E-2,-3.9919573E-1,-5.1189286E-1,7.988934E-4,-2.7061826E-1,1.0197394E-1,8.847353E-1,-3.2051712E-2,-8.618442E-3,8.287451E-2,-3.409653E-2,6.6128984E-2,-4.083906E-2,4.4242376E-3,-3.8542266E-3,-4.2648394E-2,2.5427306E-2,-3.6591742E-2,-3.5255298E-2,1.5692823E-2,1.3904434E-2,8.210903E-2,5.0575163E-2,-2.3174763E-2,5.4190975E-2,-1.1995948E-2,3.7549436E-2,-3.010086E-2],"categories":[],"categories_nodes":[],"categories_segments":[],"categories_sizes":[],"default_left":[0,0,0,0,0,0,0,0,0,0,0,0,0,0,0,0,0,0,0,0,0,0,0,0,0,0,0,0,0,0,0,0,0,0,0,0,0,0,0,0,0,0,0],"id":11,"left_children":[1,3,5,7,-1,-1,9,11,-1,13,15,17,19,21,23,25,27,29,-1,31,33,35,37,39,-1,-1,-1,-1,41,-1,-1,-1,-1,-1,-1,-1,-1,-1,-1,-1,-1,-1,-1],"loss_changes":[4.994906E1,4.1245956E0,3.6154175E1,2.4869251E0,0E0,0E0,7.827942E0,2.0761094E0,0E0,4.967308E0,7.426609E-1,3.9969015E-1,1.3363914E0,3.6614704E0,2.3089828E0,2.6088636E0,7.077576E-1,3.888173E-1,0E0,2.2899084E0,1.5819438E0,4.164646E0,1.3868364E0,2.1940377E0,0E0,0E0,0E0,0E0,1.0416862E0,0E0,0E0,0E0,0E0,0E0,0E0,0E0,0E0,0E0,0E0,0E0,0E0,0E0,0E0],"parents":[2147483647,0,0,1,1,2,2,3,3,6,6,7,7,9,9,10,10,11,11,12,12,13,13,14,14,15,15,16,16,17,17,19,19,20,20,21,21,22,22,23,23,28,28],"right_children":[2,4,6,8,-1,-1,10,12,-1,14,16,18,20,22,24,26,28,30,-1,32,34,36,38,40,-1,-1,-1,-1,42,-1,-1,-1,-1,-1,-1,-1,-1,-1,-1,-1,-1,-1,-1],"split_conditions":[4.91E2,3.03E2,5.98E2,2.96E2,-4.4376966E-2,1.2942398E-1,1.9E0,1E0,6.4505674E-2,2E0,5.8E1,1.52E2,6E-1,2.38E2,1.57E2,2.24E2,1E0,1.1E2,7.988934E-4,1.13E2,4.6E1,1.05E2,1.22E2,1.16E2,8.287451E-2,-3.409653E-2,6.6128984E-2,-4.083906E-2,2.11E2,-3.8542266E-3,-4.2648394E-2,2.5427306E-2,-3.6591742E-2,-3.5255298E-2,1.5692823E-2,1.3904434E-2,8.210903E-2,5.0575163E-2,-2.3174763E-2,5.4190975E-2,-1.1995948E-2,3.7549436E-2,-3.010086E-2],"split_indices":[0,0,0,0,0,0,11,2,0,8,1,5,11,6,9,6,7,5,0,5,1,9,5,5,0,0,0,0,6,0,0,0,0,0,0,0,0,0,0,0,0,0,0],"split_type":[0,0,0,0,0,0,0,0,0,0,0,0,0,0,0,0,0,0,0,0,0,0,0,0,0,0,0,0,0,0,0,0,0,0,0,0,0,0,0,0,0,0,0],"sum_hessian":[1.8097368E2,8.7359474E1,9.3614204E1,5.6197266E1,3.1162209E1,2.5802147E1,6.781206E1,5.4779922E1,1.417346E0,5.2618824E1,1.5193237E1,1.6562498E1,3.8217422E1,3.3756203E1,1.886262E1,4.1680827E0,1.1025154E1,1.4995617E1,1.5668807E0,1.5038862E1,2.3178562E1,2.8732248E1,5.023954E0,1.7784966E1,1.077655E0,2.779863E0,1.3882198E0,7.8497324E0,3.175422E0,1.8543613E0,1.3141255E1,3.804185E0,1.1234677E1,3.1258435E0,2.0052717E1,7.0714097E0,2.166084E1,1.010817E0,4.013137E0,2.4024415E0,1.5382524E1,1.3232734E0,1.8521485E0],"tree_param":{"num_deleted":"0","num_feature":"15","num_nodes":"43","size_leaf_vector":"1"}},{"base_weights":[-2.493433E-1,-4.3075547E-1,4.641782E-2,-5.444685E-1,-1.74174E-2,4.513844E-1,-6.45609E-2,2.88071E-1,-5.784972E-1,5.177442E-2,-1.0335961E-1,2.4094455E-1,8.334848E-2,-2.0999128E-1,2.8730986E-1,8.385237E-2,-3.0453036E-2,-5.9042466E-1,7.2978106E-3,-3.3791247E-1,1.9427122E-1,5.306154E-1,-3.4909207E-2,-3.5790616E-1,2.5357425E-1,5.5300915E-1,-3.6042254E-2,-4.518202E-2,-1.5976204E-1,1.0252811E-1,-4.5960802E-1,6.095733E-1,-3.166717E-1,1.167567E-1,7.902792E-2,-2.4324381E-1,-4.143019E-2,7.398832E-1,-8.140933E-2,8.032358E-1,-4.879871E-2,7.2440025E-3,-2.5916955E-2,3.780783E-2,-2.6305327E-2,-9.453572E-3,-4.0341504E-2,-5.7914914E-3,7.1287885E-2,-3.5039943E-2,7.2439783E-3,6.501592E-2,-2.1323156E-2,-3.3272006E-2,-4.89144E-3,7.742302E-2,5.3984746E-3,-3.695978E-2,5.306686E-2,8.005719E-2,-5.6884857E-3,2.6153982E-2,-3.0238524E-2],"categories":[],"categories_nodes":[],"categories_segments":[],"categories_sizes":[],"default_left":[0,0,0,0,0,0,0,0,0,0,0,0,0,0,0,0,0,0,0,0,0,0,0,0,0,0,0,0,0,0,0,0,0,0,0,0,0,0,0,0,0,0,0,0,0,0,0,0,0,0,0,0,0,0,0,0,0,0,0,0,0,0,0],"id":12,"left_children":[1,3,5,7,9,11,13,15,17,-1,19,21,-1,23,25,-1,-1,27,-1,29,31,33,-1,35,37,39,-1,-1,41,43,45,47,49,51,-1,53,-1,55,57,59,61,-1,-1,-1,-1,-1,-1,-1,-1,-1,-1,-1,-1,-1,-1,-1,-1,-1,-1,-1,-1,-1,-1],"loss_changes":[9.236192E0,4.999178E0,3.0046134E0,2.53331E0,1.5326327E0,1.7273018E0,2.7643006E0,2.728341E0,7.0705986E-1,0E0,1.6219038E0,2.7371044E0,0E0,2.6939688E0,3.5045795E0,0E0,0E0,3.138237E-1,0E0,7.3494256E-1,2.4126365E0,1.8464689E0,0E0,5.1674986E-1,1.6516534E0,1.8852315E0,0E0,0E0,2.0064649E-1,8.313001E-1,1.9949126E-1,1.5045228E0,3.7781626E-1,2.1128383E0,0E0,6.900449E-1,0E0,7.232723E-1,2.5185544E0,2.1052089E0,7.805715E-1,0E0,0E0,0E0,0E0,0E0,0E0,0E0,0E0,0E0,0E0,0E0,0E0,0E0,0E0,0E0,0E0,0E0,0E0,0E0,0E0,0E0,0E0],"parents":[2147483647,0,0,1,1,2,2,3,3,4,4,5,5,6,6,7,7,8,8,10,10,11,11,13,13,14,14,17,17,19,19,20,20,21,21,23,23,24,24,25,25,28,28,29,29,30,30,31,31,32,32,33,33,35,35,37,37,38,38,39,39,40,40],"right_children":[2,4,6,8,10,12,14,16,18,-1,20,22,-1,24,26,-1,-1,28,-1,30,32,34,-1,36,38,40,-1,-1,42,44,46,48,50,52,-1,54,-1,56,58,60,62,-1,-1,-1,-1,-1,-1,-1,-1,-1,-1,-1,-1,-1,-1,-1,-1,-1,-1,-1,-1,-1,-1],"split_conditions":[5.98E2,1E0,6.59E2,1E0,1.6E1,6.52E2,1.9E0,1.45E2,6.7E1,5.177442E-2,1.34E2,1E0,8.334848E-2,8.57E2,1.48E2,8.385237E-2,-3.0453036E-2,2.8E0,7.2978106E-3,7.2E1,1.42E2,2E0,-3.4909207E-2,1E0,1E-1,8.07E2,-3.6042254E-2,-4.518202E-2,1.41E2,5.5E1,2.13E2,2E0,5.9E1,1E2,7.902792E-2,7.23E2,-4.143019E-2,6.5E1,6.3E1,2E0,1.29E2,7.2440025E-3,-2.5916955E-2,3.780783E-2,-2.6305327E-2,-9.453572E-3,-4.0341504E-2,-5.7914914E-3,7.1287885E-2,-3.5039943E-2,7.2439783E-3,6.501592E-2,-2.1323156E-2,-3.3272006E-2,-4.89144E-3,7.742302E-2,5.3984746E-3,-3.695978E-2,5.306686E-2,8.005719E-2,-5.6884857E-3,2.6153982E-2,-3.0238524E-2],"split_indices":[0,13,0,12,0,0,11,9,1,0,5,4,0,0,5,0,0,11,0,0,5,12,0,4,11,0,0,0,9,1,6,13,1,9,0,0,0,1,1,12,5,0,0,0,0,0,0,0,0,0,0,0,0,0,0,0,0,0,0,0,0,0,0],"split_type":[0,0,0,0,0,0,0,0,0,0,0,0,0,0,0,0,0,0,0,0,0,0,0,0,0,0,0,0,0,0,0,0,0,0,0,0,0,0,0,0,0,0,0,0,0,0,0,0,0,0,0,0,0,0,0,0,0,0,0,0,0,0,0],"sum_hessian":[1.707688E2,1.0556286E2,6.520593E1,8.253851E1,2.302435E1,1.3365885E1,5.184005E1,2.9479837E0,7.959053E1,1.7316439E0,2.1292704E1,1.1169296E1,2.1965888E0,3.6965282E1,1.4874766E1,1.0644569E0,1.8835269E0,7.8334305E1,1.2562206E0,1.1832539E1,9.460166E0,8.097594E0,3.0717015E0,2.8196308E1,8.768975E0,1.1258812E1,3.6159544E0,7.5822365E1,2.5119436E0,2.5956967E0,9.236841E0,5.112011E0,4.3481555E0,5.2037196E0,2.8938751E0,1.9154625E1,9.041684E0,3.0836313E0,5.6853437E0,7.715901E0,3.5429115E0,1.2573291E0,1.2546145E0,1.3168536E0,1.278843E0,2.2517867E0,6.9850545E0,1.952428E0,3.159583E0,3.091546E0,1.2566094E0,1.4083009E0,3.7954185E0,8.309541E0,1.0845084E1,1.7651949E0,1.3184364E0,3.9835887E0,1.7017549E0,5.7681317E0,1.9477688E0,1.6773565E0,1.8655549E0],"tree_param":{"num_deleted":"0","num_feature":"15","num_nodes":"63","size_leaf_vector":"1"}},{"base_weights":[-2.5984094E-1,-4.166376E-1,9.336856E-2,-5.328111E-1,6.212925E-2,9.662636E-1,-1.5790436E-2,5.974891E-2,-5.515703E-1,-1.2487466E-1,1.0837473E0,-2.379956E-2,9.666942E-2,-1.6500546E-1,2.5748822E-1,3.8878184E-2,-2.8207103E-2,-5.615175E-1,7.2978097E-3,-2.2762878E-1,4.3333925E-2,1.1993972E-2,1.02884464E-1,-2.75936E-1,4.870524E-1,4.2258924E-1,-3.4113027E-2,-2.3491311E-1,-5.8098066E-1,4.814632E-2,-4.6292803E-1,-3.6367956E-1,4.3207176E-2,-5.092893E-3,8.5220397E-1,6.4803696E-1,-1.19629085E-1,5.089147E-2,-3.815108E-2,-1.858763E-2,-4.437174E-2,4.608594E-2,-1.9111533E-2,6.378528E-3,-4.114123E-2,5.0594356E-2,-3.2449216E-2,1.2314853E-2,8.383309E-2,6.231564E-2,5.972767E-3,2.6716715E-2,-3.3401214E-2],"categories":[],"categories_nodes":[],"categories_segments":[],"categories_sizes":[],"default_left":[0,0,0,0,0,0,0,0,0,0,0,0,0,0,0,0,0,0,0,0,0,0,0,0,0,0,0,0,0,0,0,0,0,0,0,0,0,0,0,0,0,0,0,0,0,0,0,0,0,0,0,0,0],"id":13,"left_children":[1,3,5,7,9,11,13,15,17,19,21,-1,-1,23,25,-1,-1,27,-1,29,-1,-1,-1,31,33,35,-1,37,39,41,43,45,-1,-1,47,49,51,-1,-1,-1,-1,-1,-1,-1,-1,-1,-1,-1,-1,-1,-1,-1,-1],"loss_changes":[9.536352E0,6.6490955E0,5.116765E0,1.0981636E0,4.743911E0,2.8804345E0,2.023145E0,9.63105E-1,6.548042E-1,1.6684747E0,8.0132484E-1,0E0,0E0,2.4510322E0,2.255643E0,0E0,0E0,4.466076E-1,0E0,1.2739236E0,0E0,0E0,0E0,2.3034923E0,1.0747533E0,1.8820891E0,0E0,2.0551167E0,1.5790176E-1,1.835719E0,5.3940725E-1,2.154402E0,0E0,0E0,3.8295555E-1,1.0336432E0,9.614439E-1,0E0,0E0,0E0,0E0,0E0,0E0,0E0,0E0,0E0,0E0,0E0,0E0,0E0,0E0,0E0,0E0],"parents":[2147483647,0,0,1,1,2,2,3,3,4,4,5,5,6,6,7,7,8,8,9,9,10,10,13,13,14,14,17,17,19,19,23,23,24,24,25,25,27,27,28,28,29,29,30,30,31,31,34,34,35,35,36,36],"right_children":[2,4,6,8,10,12,14,16,18,20,22,-1,-1,24,26,-1,-1,28,-1,30,-1,-1,-1,32,34,36,-1,38,40,42,44,46,-1,-1,48,50,52,-1,-1,-1,-1,-1,-1,-1,-1,-1,-1,-1,-1,-1,-1,-1,-1],"split_conditions":[6.59E2,1E0,9E1,1E0,2.8E0,1.24E2,1.36E2,2.02E2,6.7E1,3.19E2,2E0,-2.379956E-2,9.666942E-2,2.72E2,1.41E2,3.8878184E-2,-2.8207103E-2,3.8E1,7.2978097E-3,1.29E2,4.3333925E-2,1.1993972E-2,1.02884464E-1,7E1,2E0,1E0,-3.4113027E-2,1.4E2,9.6E1,2.13E2,4.7E1,6.66E2,4.3207176E-2,-5.092893E-3,8.25E2,2E0,1.44E2,5.089147E-2,-3.815108E-2,-1.858763E-2,-4.437174E-2,4.608594E-2,-1.9111533E-2,6.378528E-3,-4.114123E-2,5.0594356E-2,-3.2449216E-2,1.2314853E-2,8.383309E-2,6.231564E-2,5.972767E-3,2.6716715E-2,-3.3401214E-2],"split_indices":[0,13,9,14,11,5,5,6,1,6,14,0,0,6,9,0,0,0,0,5,0,0,0,1,8,4,0,9,9,6,1,0,0,0,0,14,5,0,0,0,0,0,0,0,0,0,0,0,0,0,0,0,0],"split_type":[0,0,0,0,0,0,0,0,0,0,0,0,0,0,0,0,0,0,0,0,0,0,0,0,0,0,0,0,0,0,0,0,0,0,0,0,0,0,0,0,0,0,0,0,0,0,0,0,0,0,0,0,0],"sum_hessian":[1.7048964E2,1.17949814E2,5.2539818E1,9.482701E1,2.31228E1,4.9672313E0,4.757259E1,2.8428552E0,9.198416E1,2.0287083E1,2.835718E0,1.0011318E0,3.9660995E0,3.1027319E1,1.6545269E1,1.2929529E0,1.5499023E0,9.0727936E1,1.2562206E0,1.828867E1,1.998412E0,1.043658E0,1.79206E0,2.700923E1,4.01809E0,1.3762252E1,2.7830167E0,5.8376713E0,8.489027E1,8.786321E0,9.50235E0,2.500712E1,2.0021105E0,1.9176618E0,2.100428E0,9.582717E0,4.1795344E0,1.0051787E0,4.8324924E0,3.3797677E0,8.15105E1,2.7038443E0,6.0824766E0,1.2850156E0,8.217334E0,1.0108774E0,2.3996243E1,1.0356593E0,1.0647688E0,6.9010625E0,2.6816547E0,1.6603082E0,2.519226E0],"tree_param":{"num_deleted":"0","num_feature":"15","num_nodes":"53","size_leaf_vector":"1"}},{"base_weights":[-5.023116E-1,-5.620327E-1,4.342025E-2,-5.7408625E-1,-4.4965997E-2,-3.834373E-1,2.933609E-1,-5.8048195E-1,6.459125E-3,3.591565E-2,-3.1665064E-2,1.2570599E-2,-3.819414E-2,8.807568E-2,9.7763896E-2,-2.6610124E-1,-4.4483125E-2,3.8986173E-1,-3.485663E-2,-3.8516283E-2,3.763994E-2,-2.8218737E-2,6.531585E-1,2.3619268E-2,8.598828E-2],"categories":[],"categories_nodes":[],"categories_segments":[],"categories_sizes":[],"default_left":[0,0,0,0,0,0,0,0,0,0,0,0,0,0,0,0,0,0,0,0,0,0,0,0,0],"id":14,"left_children":[1,3,5,7,9,11,13,15,-1,-1,-1,-1,-1,-1,17,19,-1,21,-1,-1,-1,-1,23,-1,-1],"loss_changes":[5.4739265E0,9.139557E-1,1.9711438E0,6.718178E-1,1.095369E0,5.61461E-1,1.8761742E0,4.216423E-1,0E0,0E0,0E0,0E0,0E0,0E0,1.9139712E0,1.6735437E0,0E0,1.7556188E0,0E0,0E0,0E0,0E0,6.2949514E-1,0E0,0E0],"parents":[2147483647,0,0,1,1,2,2,3,3,4,4,5,5,6,6,7,7,14,14,15,15,17,17,22,22],"right_children":[2,4,6,8,10,12,14,16,-1,-1,-1,-1,-1,-1,18,20,-1,22,-1,-1,-1,-1,24,-1,-1],"split_conditions":[2.4E0,3E0,5.6E1,1.9E2,1.1E0,4.9E1,1.15E2,9.3E1,6.459125E-3,3.591565E-2,-3.1665064E-2,1.2570599E-2,-3.819414E-2,8.807568E-2,2.55E2,9E1,-4.4483125E-2,1E0,-3.485663E-2,-3.8516283E-2,3.763994E-2,-2.8218737E-2,1.6E2,2.3619268E-2,8.598828E-2],"split_indices":[11,13,1,5,11,0,5,9,0,0,0,0,0,0,6,9,0,10,0,0,0,0,5,0,0],"split_type":[0,0,0,0,0,0,0,0,0,0,0,0,0,0,0,0,0,0,0,0,0,0,0,0,0],"sum_hessian":[1.66206E2,1.4978473E2,1.6421267E1,1.462648E2,3.5199234E0,5.8671036E0,1.0554163E1,1.4498106E2,1.2837316E0,1.3608142E0,2.1591094E0,1.0288587E0,4.838245E0,1.0083958E0,9.545768E0,6.4503465E0,1.3853072E2,6.4851665E0,3.0606008E0,5.129E0,1.321346E0,1.5490164E0,4.93615E0,3.9004157E0,1.0357344E0],"tree_param":{"num_deleted":"0","num_feature":"15","num_nodes":"25","size_leaf_vector":"1"}},{"base_weights":[6.213779E-1,1.1623157E0,-1.2320849E-1,1.416799E0,1.9228745E-1,-4.7014683E-1,1.9298024E-1,1.5210612E0,5.906626E-1,-3.670428E-1,8.885181E-1,-5.566241E-1,-1.2527159E-1,3.927805E-1,-2.8296548E-1,1.1524403E-1,1.2749023E-2,1.1465241E0,-1.7383252E-1,1.8516574E-2,-4.848522E-1,-4.3916132E-2,9.844415E-2,-1.5849381E-4,-4.3956324E-2,-4.0687937E-1,6.1531153E-2,1.0758915E-1,7.401341E-1,-4.1035745E-1,4.785559E-2,2.1860851E-2,1.0435574E-1,-3.6676988E-2,4.744006E-2,-4.1085802E-2,-2.0139717E-1,4.887724E-2,-3.3008143E-2,-3.866496E-2,6.0174055E-3,8.2437456E-1,-7.360182E-2,9.300219E-1,2.5163954E-2,-4.203942E-2,2.9263461E-2,6.8651824E-3,-2.8581792E-2,8.839137E-2,5.871152E-3,-1.2801946E-2,5.0529927E-2,2.718405E-2,8.633644E-2,-3.1422593E-2,4.973801E-2],"categories":[],"categories_nodes":[],"categories_segments":[],"categories_sizes":[],"default_left":[0,0,0,0,0,0,0,0,0,0,0,0,0,0,0,0,0,0,0,0,0,0,0,0,0,0,0,0,0,0,0,0,0,0,0,0,0,0,0,0,0,0,0,0,0,0,0,0,0,0,0,0,0,0,0,0,0],"id":15,"left_children":[1,3,5,7,9,11,13,15,17,19,21,23,25,27,29,-1,-1,31,33,-1,35,37,-1,-1,-1,39,-1,41,43,45,-1,-1,-1,-1,-1,-1,47,-1,-1,-1,-1,49,51,53,55,-1,-1,-1,-1,-1,-1,-1,-1,-1,-1,-1,-1],"loss_changes":[7.916236E1,2.7802246E1,9.245899E0,6.8482056E0,9.980955E0,1.125761E0,4.33075E0,1.4006348E0,5.1769013E0,1.1652331E0,4.5405083E0,5.175657E-1,2.817612E0,3.057849E0,1.8694395E0,0E0,0E0,1.0420876E0,1.7833524E0,0E0,1.1213422E-1,1.5302554E0,0E0,0E0,0E0,4.5710242E-1,0E0,2.471446E0,1.8921685E0,1.7388239E0,0E0,0E0,0E0,0E0,0E0,0E0,2.3737898E-1,0E0,0E0,0E0,0E0,9.191251E-1,1.2567093E0,9.7849464E-1,1.4081029E0,0E0,0E0,0E0,0E0,0E0,0E0,0E0,0E0,0E0,0E0,0E0,0E0],"parents":[2147483647,0,0,1,1,2,2,3,3,4,4,5,5,6,6,7,7,8,8,9,9,10,10,11,11,12,12,13,13,14,14,17,17,18,18,20,20,21,21,25,25,27,27,28,28,29,29,36,36,41,41,42,42,43,43,44,44],"right_children":[2,4,6,8,10,12,14,16,18,20,22,24,26,28,30,-1,-1,32,34,-1,36,38,-1,-1,-1,40,-1,42,44,46,-1,-1,-1,-1,-1,-1,48,-1,-1,-1,-1,50,52,54,56,-1,-1,-1,-1,-1,-1,-1,-1,-1,-1,-1,-1],"split_conditions":[4.93E2,1E0,7.05E2,2E0,2E0,1E0,1.7E0,2.4E0,9E-1,3E-1,1E0,9.6E1,2E0,1E0,1.5E2,1.1524403E-1,1.2749023E-2,1E0,3E0,1.8516574E-2,1E0,1.12E2,9.844415E-2,-1.5849381E-4,-4.3956324E-2,2E0,6.1531153E-2,5.2E1,1.42E2,2E0,4.785559E-2,2.1860851E-2,1.0435574E-1,-3.6676988E-2,4.744006E-2,-4.1085802E-2,1.32E2,4.887724E-2,-3.3008143E-2,-3.866496E-2,6.0174055E-3,7.82E2,9.05E2,5.6E1,1.4E0,-4.203942E-2,2.9263461E-2,6.8651824E-3,-2.8581792E-2,8.839137E-2,5.871152E-3,-1.2801946E-2,5.0529927E-2,2.718405E-2,8.633644E-2,-3.1422593E-2,4.973801E-2],"split_indices":[0,13,0,14,12,4,11,11,11,11,4,5,12,4,9,0,0,4,4,0,4,5,0,0,0,8,0,1,5,14,0,0,0,0,0,0,5,0,0,0,0,0,0,1,11,0,0,0,0,0,0,0,0,0,0,0,0],"split_type":[0,0,0,0,0,0,0,0,0,0,0,0,0,0,0,0,0,0,0,0,0,0,0,0,0,0,0,0,0,0,0,0,0,0,0,0,0,0,0,0,0,0,0,0,0,0,0,0,0,0,0,0,0,0,0,0,0],"sum_hessian":[1.9518689E2,1.1272893E2,8.245796E1,8.8936264E1,2.3792665E1,3.9085E1,4.3372963E1,7.8222984E1,1.0713279E1,1.3455636E1,1.033703E1,3.0758366E1,8.3266325E0,3.0671793E1,1.2701171E1,7.7198555E1,1.024427E0,5.91372E0,4.799558E0,1.9899448E0,1.1465692E1,3.511808E0,6.825222E0,1.605765E0,2.9152601E1,6.855073E0,1.4715593E0,1.7562231E1,1.3109563E1,1.16449795E1,1.0561911E0,1.8042473E0,4.109473E0,3.7336757E0,1.0658824E0,8.6187525E0,2.8469388E0,1.0403391E0,2.4714687E0,5.5571647E0,1.2979085E0,2.827395E0,1.4734836E1,1.012081E1,2.9887536E0,1.0058058E1,1.5869212E0,1.2689385E0,1.5780003E0,1.5242077E0,1.3031873E0,1.3723526E1,1.0113101E0,3.5775464E0,6.543263E0,1.9645258E0,1.0242276E0],"tree_param":{"num_deleted":"0","num_feature":"15","num_nodes":"57","size_leaf_vector":"1"}},{"base_weights":[2.2363663E-1,-2.9628417E-1,6.825219E-1,-1.3373804E-1,-4.3836493E-2,1.1485874E-1,3.2420886E-1,-1.7395544E-1,6.12456E-2,4.8918003E-1,-2.65133E-1,-4.5543137E-1,-4.684504E-2,6.913941E-1,1.0052904E-1,7.278806E-2,-3.9110404E-1,-5.0356096E-1,1.1532485E-3,-2.425858E-1,1.08339556E-1,7.8756714E-1,-2.4523206E-1,-1.1687035E-2,7.7959284E-2,-3.3766843E-2,6.317749E-2,-4.034068E-2,6.020127E-3,-3.6069923E-3,-4.2106017E-2,-3.198883E-2,2.5141919E-2,6.805627E-2,-1.0479412E-3,6.47725E-2,-2.976124E-2,-3.245607E-2,1.1535543E-2,5.103863E-2,-1.1908172E-2,3.6893956E-2,-2.9845966E-2],"categories":[],"categories_nodes":[],"categories_segments":[],"categories_sizes":[],"default_left":[0,0,0,0,0,0,0,0,0,0,0,0,0,0,0,0,0,0,0,0,0,0,0,0,0,0,0,0,0,0,0,0,0,0,0,0,0,0,0,0,0,0,0],"id":16,"left_children":[1,3,5,7,-1,-1,9,11,-1,13,15,17,19,21,23,25,27,29,-1,31,33,35,37,39,-1,-1,-1,-1,41,-1,-1,-1,-1,-1,-1,-1,-1,-1,-1,-1,-1,-1,-1],"loss_changes":[4.3921043E1,3.9789681E0,2.920303E1,2.308046E0,0E0,0E0,6.928297E0,1.9534456E0,0E0,4.251812E0,7.070819E-1,3.942349E-1,1.2151449E0,3.4356976E0,2.1181297E0,2.4610302E0,6.892513E-1,3.8152957E-1,0E0,2.0152025E0,2.2139096E0,3.305149E0,3.7443686E-1,2.0265446E0,0E0,0E0,0E0,0E0,1.0132936E0,0E0,0E0,0E0,0E0,0E0,0E0,0E0,0E0,0E0,0E0,0E0,0E0,0E0,0E0],"parents":[2147483647,0,0,1,1,2,2,3,3,6,6,7,7,9,9,10,10,11,11,12,12,13,13,14,14,15,15,16,16,17,17,19,19,20,20,21,21,22,22,23,23,28,28],"right_children":[2,4,6,8,-1,-1,10,12,-1,14,16,18,20,22,24,26,28,30,-1,32,34,36,38,40,-1,-1,-1,-1,42,-1,-1,-1,-1,-1,-1,-1,-1,-1,-1,-1,-1,-1,-1],"split_conditions":[4.91E2,3.03E2,5.98E2,2.96E2,-4.3836493E-2,1.1485874E-1,1.9E0,1E0,6.12456E-2,2E0,5.8E1,1.52E2,2.28E2,1.51E2,1.57E2,2.24E2,1E0,1.1E2,1.1532485E-3,1.9E0,2.33E2,2.83E2,5.6E1,1.16E2,7.7959284E-2,-3.3766843E-2,6.317749E-2,-4.034068E-2,8.14E2,-3.6069923E-3,-4.2106017E-2,-3.198883E-2,2.5141919E-2,6.805627E-2,-1.0479412E-3,6.47725E-2,-2.976124E-2,-3.245607E-2,1.1535543E-2,5.103863E-2,-1.1908172E-2,3.6893956E-2,-2.9845966E-2],"split_indices":[0,0,0,0,0,0,11,2,0,8,1,5,6,9,9,6,7,5,0,11,6,6,1,5,0,0,0,0,0,0,0,0,0,0,0,0,0,0,0,0,0,0,0],"split_type":[0,0,0,0,0,0,0,0,0,0,0,0,0,0,0,0,0,0,0,0,0,0,0,0,0,0,0,0,0,0,0,0,0,0,0,0,0,0,0,0,0,0,0],"sum_hessian":[1.8224292E2,8.560551E1,9.663742E1,5.567107E1,2.9934439E1,2.7710546E1,6.892687E1,5.419458E1,1.4764872E0,5.3985085E1,1.4941788E1,1.6056273E1,3.813831E1,3.4997185E1,1.89879E1,4.172125E0,1.0769663E1,1.4503996E1,1.5522767E0,1.661629E1,2.152202E1,3.1882614E1,3.114571E0,1.784295E1,1.1449492E0,2.7310503E0,1.4410747E0,7.6046576E0,3.1650047E0,1.841032E0,1.2662964E1,1.2802705E1,3.8135839E0,2.0049055E0,1.9517115E1,3.021302E1,1.669594E0,2.0614066E0,1.0531645E0,2.4914703E0,1.53514805E1,1.3379574E0,1.8270472E0],"tree_param":{"num_deleted":"0","num_feature":"15","num_nodes":"43","size_leaf_vector":"1"}},{"base_weights":[-2.4100609E-1,-4.2109627E-1,4.412832E-2,-5.3606975E-1,-1.7599888E-2,4.2770705E-1,-6.309169E-2,2.8034362E-1,-5.709304E-1,4.888433E-2,-1.01241395E-1,2.2904515E-1,7.753073E-2,-2.0440975E-1,2.7136055E-1,7.9609275E-2,-3.0054143E-2,-5.8318645E-1,7.0764436E-3,-3.310642E-1,1.8366887E-1,5.0182277E-1,-3.4490973E-2,-3.5069287E-1,2.4289177E-1,5.17385E-1,-3.551152E-2,-4.4661123E-2,-1.5658076E-1,1.0161455E-1,-4.53137E-1,5.749957E-1,-3.1248704E-1,1.1069967E-1,9.817373E-1,-2.3744728E-1,-4.095012E-2,6.9779307E-1,-7.9634584E-2,7.474337E-1,-5.1041372E-2,-2.57103E-2,7.3690373E-3,3.7269812E-2,-2.6156638E-2,-9.238128E-3,-3.9902594E-2,-5.9802914E-3,6.697198E-2,7.1935947E-3,-3.4751773E-2,6.167821E-2,-2.108586E-2,8.835659E-2,2.95054E-2,-3.2789312E-2,-4.6957694E-3,7.374179E-2,4.3073692E-3,-3.660654E-2,5.0811056E-2,7.416356E-2,-5.932798E-3,2.4968082E-2,-2.9973824E-2],"categories":[],"categories_nodes":[],"categories_segments":[],"categories_sizes":[],"default_left":[0,0,0,0,0,0,0,0,0,0,0,0,0,0,0,0,0,0,0,0,0,0,0,0,0,0,0,0,0,0,0,0,0,0,0,0,0,0,0,0,0,0,0,0,0,0,0,0,0,0,0,0,0,0,0,0,0,0,0,0,0,0,0,0,0],"id":17,"left_children":[1,3,5,7,9,11,13,15,17,-1,19,21,-1,23,25,-1,-1,27,-1,29,31,33,-1,35,37,39,-1,-1,41,43,45,47,49,51,53,55,-1,57,59,61,63,-1,-1,-1,-1,-1,-1,-1,-1,-1,-1,-1,-1,-1,-1,-1,-1,-1,-1,-1,-1,-1,-1,-1,-1],"loss_changes":[8.681582E0,4.7917786E0,2.7500892E0,2.451416E0,1.4088379E0,1.5201867E0,2.5424337E0,2.536087E0,6.8727684E-1,0E0,1.5135064E0,2.5375478E0,0E0,2.5428014E0,3.1877785E0,0E0,0E0,3.0685616E-1,0E0,7.1350455E-1,2.227842E0,1.631645E0,0E0,5.0541353E-1,1.5002954E0,1.6791904E0,0E0,0E0,1.9947414E-1,8.138131E-1,1.9582272E-1,1.372246E0,3.7096334E-1,1.9700575E0,2.7844906E-3,6.69124E-1,0E0,7.0893455E-1,2.3900592E0,1.8736143E0,7.422849E-1,0E0,0E0,0E0,0E0,0E0,0E0,0E0,0E0,0E0,0E0,0E0,0E0,0E0,0E0,0E0,0E0,0E0,0E0,0E0,0E0,0E0,0E0,0E0,0E0],"parents":[2147483647,0,0,1,1,2,2,3,3,4,4,5,5,6,6,7,7,8,8,10,10,11,11,13,13,14,14,17,17,19,19,20,20,21,21,23,23,24,24,25,25,28,28,29,29,30,30,31,31,32,32,33,33,34,34,35,35,37,37,38,38,39,39,40,40],"right_children":[2,4,6,8,10,12,14,16,18,-1,20,22,-1,24,26,-1,-1,28,-1,30,32,34,-1,36,38,40,-1,-1,42,44,46,48,50,52,54,56,-1,58,60,62,64,-1,-1,-1,-1,-1,-1,-1,-1,-1,-1,-1,-1,-1,-1,-1,-1,-1,-1,-1,-1,-1,-1,-1,-1],"split_conditions":[5.98E2,1E0,6.59E2,1E0,1.6E1,6.52E2,1.9E0,1.45E2,6.7E1,4.888433E-2,1.34E2,1E0,7.753073E-2,8.57E2,1.48E2,7.9609275E-2,-3.0054143E-2,2.8E0,7.0764436E-3,7.2E1,1.42E2,2E0,-3.4490973E-2,1E0,1E-1,8.07E2,-3.551152E-2,-4.4661123E-2,2.33E2,1.22E2,2.13E2,9E-1,2.04E2,1E2,2E0,7.23E2,-4.095012E-2,2.24E2,6.3E1,2E0,1.29E2,-2.57103E-2,7.3690373E-3,3.7269812E-2,-2.6156638E-2,-9.238128E-3,-3.9902594E-2,-5.9802914E-3,6.697198E-2,7.1935947E-3,-3.4751773E-2,6.167821E-2,-2.108586E-2,8.835659E-2,2.95054E-2,-3.2789312E-2,-4.6957694E-3,7.374179E-2,4.3073692E-3,-3.660654E-2,5.0811056E-2,7.416356E-2,-5.932798E-3,2.4968082E-2,-2.9973824E-2],"split_indices":[0,13,0,12,0,0,11,9,1,0,5,4,0,0,5,0,0,11,0,0,5,12,0,4,11,0,0,0,6,5,6,11,6,9,8,0,0,6,1,12,5,0,0,0,0,0,0,0,0,0,0,0,0,0,0,0,0,0,0,0,0,0,0,0,0],"split_type":[0,0,0,0,0,0,0,0,0,0,0,0,0,0,0,0,0,0,0,0,0,0,0,0,0,0,0,0,0,0,0,0,0,0,0,0,0,0,0,0,0,0,0,0,0,0,0,0,0,0,0,0,0,0,0,0,0,0,0,0,0,0,0,0,0],"sum_hessian":[1.6770526E2,1.02493675E2,6.5211586E1,7.950945E1,2.2984226E1,1.3593148E1,5.161844E1,2.967633E0,7.654182E1,1.7984428E0,2.1185783E1,1.1275062E1,2.3180864E0,3.6559544E1,1.5058895E1,1.1221343E0,1.8454986E0,7.527842E1,1.2633994E0,1.1636892E1,9.548891E0,8.271552E0,3.0035098E0,2.7712555E1,8.846986E0,1.1549467E1,3.5094287E0,7.278483E1,2.4935925E0,2.5975707E0,9.039322E0,5.249566E0,4.299325E0,5.2354245E0,3.0361273E0,1.8944023E1,8.768533E0,3.1875885E0,5.6593976E0,7.997762E0,3.5517044E0,1.2412981E0,1.2522944E0,1.3282781E0,1.2692927E0,2.2385511E0,6.8007703E0,1.9609394E0,3.2886264E0,1.2580546E0,3.0412705E0,1.4688808E0,3.7665439E0,1.5248139E0,1.5113134E0,8.141808E0,1.0802215E1,1.8344791E0,1.3531094E0,3.906975E0,1.7524226E0,6.0378604E0,1.9599018E0,1.7116172E0,1.840087E0],"tree_param":{"num_deleted":"0","num_feature":"15","num_nodes":"65","size_leaf_vector":"1"}},{"base_weights":[-2.5092927E-1,-4.067673E-1,8.9730866E-2,-4.8006555E-1,3.290907E-1,8.9367646E-1,-1.4954821E-2,-5.83805E-1,-2.6512387E-1,9.3798794E-2,7.320162E-2,2.0720424E-1,8.958286E-2,-1.5818873E-1,2.4074385E-1,-7.4958275E-3,-4.4809826E-2,1.307324E-1,-4.614988E-1,-3.2219734E-2,3.201775E-1,-2.4151964E-2,4.65664E-2,-2.677958E-1,4.66175E-1,3.965193E-1,-3.3809E-2,8.8647234E-1,-4.1279826E-1,2.8490135E-2,-5.37496E-1,5.7633394E-1,-2.7720464E-2,-3.5570303E-1,5.593454E-1,-5.2286433E-3,8.13769E-1,-1.2722124E-1,6.130903E-1,1.0190544E-1,2.3484426E-2,-3.916645E-2,8.756599E-3,-4.326353E-2,-2.0516298E-3,6.795013E-2,9.608329E-3,4.8466716E-2,-3.1875048E-2,1.2367644E-2,5.1052257E-2,7.989871E-2,1.1747509E-2,1.7070979E-2,-3.1956617E-2,8.718979E-2,2.592939E-2],"categories":[],"categories_nodes":[],"categories_segments":[],"categories_sizes":[],"default_left":[0,0,0,0,0,0,0,0,0,0,0,0,0,0,0,0,0,0,0,0,0,0,0,0,0,0,0,0,0,0,0,0,0,0,0,0,0,0,0,0,0,0,0,0,0,0,0,0,0,0,0,0,0,0,0,0,0],"id":18,"left_children":[1,3,5,7,9,11,13,15,17,19,-1,21,-1,23,25,-1,-1,27,29,-1,31,-1,-1,33,35,37,-1,39,41,-1,43,45,-1,47,49,-1,51,53,55,-1,-1,-1,-1,-1,-1,-1,-1,-1,-1,-1,-1,-1,-1,-1,-1,-1,-1],"loss_changes":[8.970054E0,6.3953342E0,4.5275974E0,2.1992664E0,1.5933112E0,1.0318003E0,1.8122389E0,4.0540314E-1,2.8742797E0,1.23034E0,0E0,8.780978E-1,0E0,2.2909603E0,2.0950491E0,0E0,0E0,5.6164436E0,1.7654047E0,0E0,1.4518571E0,0E0,0E0,2.202949E0,1.0051645E0,1.7851467E0,0E0,1.1084576E0,5.313183E-1,0E0,4.4207764E-1,6.97137E-1,0E0,2.046823E0,3.3094764E-2,0E0,3.566959E-1,6.5172905E-1,1.1874905E0,0E0,0E0,0E0,0E0,0E0,0E0,0E0,0E0,0E0,0E0,0E0,0E0,0E0,0E0,0E0,0E0,0E0,0E0],"parents":[2147483647,0,0,1,1,2,2,3,3,4,4,5,5,6,6,7,7,8,8,9,9,11,11,13,13,14,14,17,17,18,18,20,20,23,23,24,24,25,25,27,27,28,28,30,30,31,31,33,33,34,34,36,36,37,37,38,38],"right_children":[2,4,6,8,10,12,14,16,18,20,-1,22,-1,24,26,-1,-1,28,30,-1,32,-1,-1,34,36,38,-1,40,42,-1,44,46,-1,48,50,-1,52,54,56,-1,-1,-1,-1,-1,-1,-1,-1,-1,-1,-1,-1,-1,-1,-1,-1,-1,-1],"split_conditions":[6.59E2,2E0,9E1,1E0,2.8E0,1E-1,1.36E2,9.6E1,2.3E2,1.32E2,7.320162E-2,1E0,8.958286E-2,2.72E2,1.41E2,-7.4958275E-3,-4.4809826E-2,1.33E2,1E0,-3.2219734E-2,1.69E2,-2.4151964E-2,4.65664E-2,7E1,2E0,1E-1,-3.3809E-2,1.22E2,1.44E2,2.8490135E-2,1E0,5.9E1,-2.7720464E-2,6.66E2,8.35E2,-5.2286433E-3,1E0,7.29E2,1.1E0,1.0190544E-1,2.3484426E-2,-3.916645E-2,8.756599E-3,-4.326353E-2,-2.0516298E-3,6.795013E-2,9.608329E-3,4.8466716E-2,-3.1875048E-2,1.2367644E-2,5.1052257E-2,7.989871E-2,1.1747509E-2,1.7070979E-2,-3.1956617E-2,8.718979E-2,2.592939E-2],"split_indices":[0,13,9,10,11,11,5,9,0,9,0,4,0,6,9,0,0,9,14,0,9,0,0,1,8,11,0,5,5,0,13,1,0,0,0,0,10,0,11,0,0,0,0,0,0,0,0,0,0,0,0,0,0,0,0,0,0],"split_type":[0,0,0,0,0,0,0,0,0,0,0,0,0,0,0,0,0,0,0,0,0,0,0,0,0,0,0,0,0,0,0,0,0,0,0,0,0,0,0,0,0,0,0,0,0,0,0,0,0,0,0,0,0,0,0,0,0],"sum_hessian":[1.6727884E2,1.1464116E2,5.2637676E1,1.04572395E2,1.0068765E1,5.19619E0,4.7441486E1,6.937374E1,3.519865E1,8.223007E0,1.8457575E0,2.0975583E0,3.0986319E0,3.0652384E1,1.67891E1,2.1329849E0,6.724075E1,1.1782182E1,2.3416471E1,2.2117276E0,6.0112796E0,1.0174603E0,1.0800979E0,2.6560736E1,4.0916476E0,1.4050635E1,2.738466E0,4.664952E0,7.1172295E0,1.6086454E0,2.1807825E1,4.5033846E0,1.5078949E0,2.4524294E1,2.0364413E0,1.9243251E0,2.1673226E0,4.23107E0,9.819566E0,1.8068268E0,2.8581252E0,5.909917E0,1.2073125E0,2.0124695E1,1.6831301E0,2.006376E0,2.4970083E0,1.0479133E0,2.3476381E1,1.0340893E0,1.002352E0,1.1181505E0,1.049172E0,2.043412E0,2.187658E0,2.1183062E0,7.701259E0],"tree_param":{"num_deleted":"0","num_feature":"15","num_nodes":"57","size_leaf_vector":"1"}},{"base_weights":[-4.9375588E-1,-5.546816E-1,4.789289E-2,-5.669547E-1,-4.5773935E-2,-3.7562358E-1,2.899308E-1,-5.7351017E-1,6.407464E-3,3.4225464E-2,-3.1305145E-2,1.1822487E-2,-3.763138E-2,8.419304E-2,9.923909E-2,-2.570087E-1,-4.3984234E-2,3.80063E-1,-3.4342933E-2,-3.8530327E-2,5.10544E-2,-2.761766E-2,6.2727237E-1,2.2782061E-2,8.196439E-2],"categories":[],"categories_nodes":[],"categories_segments":[],"categories_sizes":[],"default_left":[0,0,0,0,0,0,0,0,0,0,0,0,0,0,0,0,0,0,0,0,0,0,0,0,0],"id":19,"left_children":[1,3,5,7,9,11,13,15,-1,-1,-1,-1,-1,-1,17,19,-1,21,-1,-1,-1,-1,23,-1,-1],"loss_changes":[5.373455E0,8.842087E-1,1.8825572E0,6.571617E-1,1.0337918E0,5.31609E-1,1.7264118E0,4.2668915E-1,0E0,0E0,0E0,0E0,0E0,0E0,1.8191803E0,2.1114178E0,0E0,1.6253198E0,0E0,0E0,0E0,0E0,5.7713723E-1,0E0,0E0],"parents":[2147483647,0,0,1,1,2,2,3,3,4,4,5,5,6,6,7,7,14,14,15,15,17,17,22,22],"right_children":[2,4,6,8,10,12,14,16,-1,-1,-1,-1,-1,-1,18,20,-1,22,-1,-1,-1,-1,24,-1,-1],"split_conditions":[2.4E0,3E0,5.6E1,1.9E2,1.1E0,4.9E1,1.15E2,9.3E1,6.407464E-3,3.4225464E-2,-3.1305145E-2,1.1822487E-2,-3.763138E-2,8.419304E-2,2.55E2,9.1E1,-4.3984234E-2,1E0,-3.4342933E-2,-3.8530327E-2,5.10544E-2,-2.761766E-2,1.6E2,2.2782061E-2,8.196439E-2],"split_indices":[11,13,1,5,11,0,5,9,0,0,0,0,0,0,6,9,0,10,0,0,0,0,5,0,0],"split_type":[0,0,0,0,0,0,0,0,0,0,0,0,0,0,0,0,0,0,0,0,0,0,0,0,0],"sum_hessian":[1.6102528E2,1.4472255E2,1.6302736E1,1.4120317E2,3.5193863E0,5.7279983E0,1.0574738E1,1.399181E2,1.2850589E0,1.399946E0,2.1194403E0,1.0478809E0,4.6801176E0,1.0599E0,9.514837E0,6.317762E0,1.3360034E2,6.537504E0,2.9773328E0,5.3148375E0,1.0029246E0,1.5018531E0,5.035651E0,3.9461222E0,1.089529E0],"tree_param":{"num_deleted":"0","num_feature":"15","num_nodes":"25","size_leaf_vector":"1"}},{"base_weights":[5.785479E-1,1.0585228E0,-1.1760595E-1,1.2790612E0,1.8019103E-1,-4.6203157E-1,1.8586704E-1,1.3682001E0,5.500749E-1,-3.6147475E-1,8.244862E-1,-5.4985344E-1,-1.1911924E-1,3.7369236E-1,-2.7527833E-1,1.035905E-1,1.2469885E-2,1.0518829E0,-1.7165281E-1,4.8572186E-2,-4.9041727E-1,-4.2503644E-2,9.003094E-2,-3.2984847E-4,-4.3494232E-2,-3.988607E-1,5.821729E-2,1.0569699E-1,6.907702E-1,-4.0239167E-1,4.536679E-2,9.067842E-2,8.302678E-3,-3.631861E-2,4.5097977E-2,3.066807E-4,-4.1866265E-2,-3.0019177E-2,2.6703073E-2,-3.8135797E-2,5.8299736E-3,7.8747916E-1,-7.0922025E-2,8.6097527E-1,2.5087215E-2,-4.155566E-2,2.7877195E-2,8.3902195E-2,5.630645E-3,1.2103633E-2,-2.905468E-2,2.8992575E-2,8.2455926E-2,-3.1052623E-2,4.7884468E-2],"categories":[],"categories_nodes":[],"categories_segments":[],"categories_sizes":[],"default_left":[0,0,0,0,0,0,0,0,0,0,0,0,0,0,0,0,0,0,0,0,0,0,0,0,0,0,0,0,0,0,0,0,0,0,0,0,0,0,0,0,0,0,0,0,0,0,0,0,0,0,0,0,0,0,0],"id":20,"left_children":[1,3,5,7,9,11,13,15,17,19,21,23,25,27,29,-1,-1,31,33,-1,35,37,-1,-1,-1,39,-1,41,43,45,-1,-1,-1,-1,-1,-1,-1,-1,-1,-1,-1,47,49,51,53,-1,-1,-1,-1,-1,-1,-1,-1,-1,-1],"loss_changes":[6.693075E1,2.2712677E1,8.708445E0,5.3886566E0,9.000174E0,1.1067839E0,3.9630442E0,1.0763092E0,4.515539E0,2.1706767E0,3.8621879E0,5.012007E-1,2.6172173E0,2.6540775E0,1.7509423E0,0E0,0E0,9.312811E-1,1.6850476E0,0E0,4.4474602E-1,7.8447944E-1,0E0,0E0,0E0,4.407754E-1,0E0,2.2923484E0,1.6235032E0,1.6589284E0,0E0,0E0,0E0,0E0,0E0,0E0,0E0,0E0,0E0,0E0,0E0,8.372276E-1,1.2144756E0,8.7957764E-1,1.3380923E0,0E0,0E0,0E0,0E0,0E0,0E0,0E0,0E0,0E0,0E0],"parents":[2147483647,0,0,1,1,2,2,3,3,4,4,5,5,6,6,7,7,8,8,9,9,10,10,11,11,12,12,13,13,14,14,17,17,18,18,20,20,21,21,25,25,27,27,28,28,29,29,41,41,42,42,43,43,44,44],"right_children":[2,4,6,8,10,12,14,16,18,20,22,24,26,28,30,-1,-1,32,34,-1,36,38,-1,-1,-1,40,-1,42,44,46,-1,-1,-1,-1,-1,-1,-1,-1,-1,-1,-1,48,50,52,54,-1,-1,-1,-1,-1,-1,-1,-1,-1,-1],"split_conditions":[4.93E2,1E0,7.05E2,2E0,1E0,1E0,1.7E0,2.4E0,9E-1,1.1E2,2E0,9.6E1,2E0,1E0,1.5E2,1.035905E-1,1.2469885E-2,2.41E2,3E0,4.8572186E-2,1.06E2,6.2E1,9.003094E-2,-3.2984847E-4,-4.3494232E-2,2E0,5.821729E-2,5.2E1,1.42E2,2E0,4.536679E-2,9.067842E-2,8.302678E-3,-3.631861E-2,4.5097977E-2,3.066807E-4,-4.1866265E-2,-3.0019177E-2,2.6703073E-2,-3.8135797E-2,5.8299736E-3,7.82E2,1E0,6.1E1,1.4E0,-4.155566E-2,2.7877195E-2,8.3902195E-2,5.630645E-3,1.2103633E-2,-2.905468E-2,2.8992575E-2,8.2455926E-2,-3.1052623E-2,4.7884468E-2],"split_indices":[0,13,0,14,4,4,11,11,11,5,12,5,12,4,9,0,0,6,4,0,9,1,0,0,0,8,0,1,5,14,0,0,0,0,0,0,0,0,0,0,0,0,7,1,11,0,0,0,0,0,0,0,0,0,0],"split_type":[0,0,0,0,0,0,0,0,0,0,0,0,0,0,0,0,0,0,0,0,0,0,0,0,0,0,0,0,0,0,0,0,0,0,0,0,0,0,0,0,0,0,0,0,0,0,0,0,0,0,0,0,0,0,0],"sum_hessian":[1.9893706E2,1.1744329E2,8.1493774E1,9.350826E1,2.393503E1,3.7926613E1,4.356716E1,8.253875E1,1.0969507E1,1.324162E1,1.0693409E1,2.9713366E1,8.213249E0,3.1092693E1,1.2474466E1,8.1507576E1,1.0311766E0,6.2007527E0,4.7687545E0,1.0445278E0,1.2197093E1,3.5025342E0,7.190875E0,1.6123335E0,2.810103E1,6.680519E0,1.5327296E0,1.7573149E1,1.3519544E1,1.1374582E1,1.0998842E0,5.0696006E0,1.1311519E0,3.6615052E0,1.1072493E0,1.5839567E0,1.0613136E1,1.8434632E0,1.659071E0,5.376927E0,1.3035923E0,2.9041107E0,1.4669039E1,1.0533035E1,2.9865086E0,9.748557E0,1.6260259E0,1.5931152E0,1.3109955E0,8.742081E0,5.926958E0,4.3999352E0,6.1331E0,1.9298714E0,1.0566372E0],"tree_param":{"num_deleted":"0","num_feature":"15","num_nodes":"55","size_leaf_vector":"1"}},{"base_weights":[2.1160811E-1,-2.8671542E-1,6.308368E-1,-1.2736635E-1,-4.331957E-2,1.035148E-1,3.026248E-1,-1.6702238E-1,5.828079E-2,4.5450395E-1,-2.5953028E-1,-4.4639134E-1,-4.397192E-2,9.366594E-1,3.0513102E-1,6.950567E-2,-3.8454944E-1,-4.955405E-1,1.5754593E-3,3.857139E-1,-1.1095818E-1,1.5264346E-1,1.0888069E0,4.991664E-1,-2.205746E-2,-3.3478253E-2,6.037559E-2,-3.99217E-2,5.6940364E-3,-4.159384E-2,-3.3324466E-3,-2.5649795E-2,5.088132E-2,-2.4309736E-2,5.1892963E-3,4.2941958E-2,-2.6058095E-2,2.9765878E-2,9.391675E-2,4.8172098E-2,-1.2986074E-2,-1.1743397E-2,7.366853E-2,3.5748646E-2,-2.9558452E-2],"categories":[],"categories_nodes":[],"categories_segments":[],"categories_sizes":[],"default_left":[0,0,0,0,0,0,0,0,0,0,0,0,0,0,0,0,0,0,0,0,0,0,0,0,0,0,0,0,0,0,0,0,0,0,0,0,0,0,0,0,0,0,0,0,0],"id":21,"left_children":[1,3,5,7,-1,-1,9,11,-1,13,15,17,19,21,23,25,27,29,-1,31,33,35,37,39,41,-1,-1,-1,43,-1,-1,-1,-1,-1,-1,-1,-1,-1,-1,-1,-1,-1,-1,-1,-1],"loss_changes":[3.8621918E1,3.8551602E0,2.4237858E1,2.1398883E0,0E0,0E0,6.179383E0,1.854327E0,0E0,3.7658434E0,6.740954E-1,3.9081645E-1,1.1639922E0,1.3634014E0,2.8319244E0,2.3248062E0,6.693611E-1,3.755393E-1,0E0,1.3986468E0,1.3464043E0,8.807946E-1,6.988611E-1,2.7992792E0,2.5179038E0,0E0,0E0,0E0,9.7175604E-1,0E0,0E0,0E0,0E0,0E0,0E0,0E0,0E0,0E0,0E0,0E0,0E0,0E0,0E0,0E0,0E0],"parents":[2147483647,0,0,1,1,2,2,3,3,6,6,7,7,9,9,10,10,11,11,12,12,13,13,14,14,15,15,16,16,17,17,19,19,20,20,21,21,22,22,23,23,24,24,28,28],"right_children":[2,4,6,8,-1,-1,10,12,-1,14,16,18,20,22,24,26,28,30,-1,32,34,36,38,40,42,-1,-1,-1,44,-1,-1,-1,-1,-1,-1,-1,-1,-1,-1,-1,-1,-1,-1,-1,-1],"split_conditions":[4.91E2,3.03E2,5.98E2,2.96E2,-4.331957E-2,1.035148E-1,1.9E0,1E0,5.828079E-2,1.16E2,5.8E1,1.52E2,1.13E2,4.6E1,2E0,2.24E2,1E0,1.6E0,1.5754593E-3,1.29E2,2.28E2,1.29E2,1.02E2,2.38E2,1.57E2,-3.3478253E-2,6.037559E-2,-3.99217E-2,2.11E2,-4.159384E-2,-3.3324466E-3,-2.5649795E-2,5.088132E-2,-2.4309736E-2,5.1892963E-3,4.2941958E-2,-2.6058095E-2,2.9765878E-2,9.391675E-2,4.8172098E-2,-1.2986074E-2,-1.1743397E-2,7.366853E-2,3.5748646E-2,-2.9558452E-2],"split_indices":[0,0,0,0,0,0,11,2,0,5,1,5,9,1,8,6,7,11,0,5,6,9,9,6,9,0,0,0,6,0,0,0,0,0,0,0,0,0,0,0,0,0,0,0,0],"split_type":[0,0,0,0,0,0,0,0,0,0,0,0,0,0,0,0,0,0,0,0,0,0,0,0,0,0,0,0,0,0,0,0,0,0,0,0,0,0,0,0,0,0,0,0,0],"sum_hessian":[1.8300635E2,8.375984E1,9.924651E1,5.5043705E1,2.8716137E1,2.9252705E1,6.9993805E1,5.351273E1,1.5309758E0,5.525649E1,1.4737317E1,1.555945E1,3.7953278E1,1.1822965E1,4.3433525E1,4.1800222E0,1.0557295E1,1.4024492E1,1.5349574E0,4.47704E0,3.347624E1,2.2470703E0,9.575894E0,2.6934628E1,1.6498898E1,2.6878557E0,1.4921668E0,7.3940377E0,3.163257E0,1.219849E1,1.8260019E0,1.2359211E0,3.2411184E0,1.4966737E1,1.8509502E1,1.1426631E0,1.1044071E0,2.4845562E0,7.091338E0,2.2243818E1,4.69081E0,1.5294389E1,1.2045084E0,1.3641506E0,1.7991062E0],"tree_param":{"num_deleted":"0","num_feature":"15","num_nodes":"45","size_leaf_vector":"1"}},{"base_weights":[-2.3285821E-1,-4.1163987E-1,4.2107787E-2,-5.2788156E-1,-1.814026E-2,4.0766388E-1,-6.183227E-2,2.7446505E-1,-5.6363064E-1,4.6363723E-2,-9.9678606E-2,1.01923175E-1,7.3929363E-1,-1.982017E-1,2.5309446E-1,7.5920545E-2,-2.9628256E-2,-5.762731E-1,7.1413973E-3,-3.2484022E-1,1.7350881E-1,-2.1410067E-1,6.1834E-1,9.6780384E-1,-5.8507046E-4,-3.270001E-1,2.965711E-1,4.8037207E-1,-3.501391E-2,-4.4168245E-2,-1.5234998E-1,9.7357646E-2,-4.4673783E-1,5.41936E-1,-3.0787757E-1,-3.5455283E-2,1.561018E-1,6.0193367E-2,8.453379E-3,9.3613684E-2,5.059029E-3,-4.3159518E-1,-1.1374982E-1,-1.3611296E-1,8.250753E-1,6.917539E-1,-5.462147E-2,7.443428E-3,-2.5387494E-2,3.5824265E-2,-2.5859393E-2,-3.9739124E-2,-9.3739685E-3,-6.5421048E-3,6.347559E-2,6.9902907E-3,-3.4395665E-2,4.5211192E-2,-2.5324762E-2,-3.8499128E-2,-4.5298077E-3,-3.0878851E-2,3.7485067E-2,4.284265E-2,-3.4792777E-2,7.525986E-2,1.2748754E-2,6.849771E-2,-6.3052997E-3,2.370148E-2,-2.9747378E-2],"categories":[],"categories_nodes":[],"categories_segments":[],"categories_sizes":[],"default_left":[0,0,0,0,0,0,0,0,0,0,0,0,0,0,0,0,0,0,0,0,0,0,0,0,0,0,0,0,0,0,0,0,0,0,0,0,0,0,0,0,0,0,0,0,0,0,0,0,0,0,0,0,0,0,0,0,0,0,0,0,0,0,0,0,0,0,0,0,0,0,0],"id":22,"left_children":[1,3,5,7,9,11,13,15,17,-1,19,21,23,25,27,-1,-1,29,-1,31,33,35,37,39,-1,41,43,45,-1,-1,47,49,51,53,55,-1,57,-1,-1,-1,-1,59,61,63,65,67,69,-1,-1,-1,-1,-1,-1,-1,-1,-1,-1,-1,-1,-1,-1,-1,-1,-1,-1,-1,-1,-1,-1,-1,-1],"loss_changes":[8.156175E0,4.5838146E0,2.5382757E0,2.3772316E0,1.3035213E0,1.4226553E0,2.299102E0,2.3647408E0,6.754856E-1,0E0,1.4144204E0,1.576237E0,1.19015E0,2.4614258E0,2.8853111E0,0E0,0E0,3.0266953E-1,0E0,6.842873E-1,2.0516253E0,6.704232E-1,2.4638057E-1,1.2569294E0,0E0,6.181643E-1,1.9847167E0,1.4913688E0,0E0,0E0,1.9607377E-1,7.718067E-1,1.9694126E-1,1.2961332E0,3.5983124E-1,0E0,9.346617E-1,0E0,0E0,0E0,0E0,5.670247E-1,2.2537582E0,1.5079107E0,2.767172E-1,1.6729698E0,7.042821E-1,0E0,0E0,0E0,0E0,0E0,0E0,0E0,0E0,0E0,0E0,0E0,0E0,0E0,0E0,0E0,0E0,0E0,0E0,0E0,0E0,0E0,0E0,0E0,0E0],"parents":[2147483647,0,0,1,1,2,2,3,3,4,4,5,5,6,6,7,7,8,8,10,10,11,11,12,12,13,13,14,14,17,17,19,19,20,20,21,21,22,22,23,23,25,25,26,26,27,27,30,30,31,31,32,32,33,33,34,34,36,36,41,41,42,42,43,43,44,44,45,45,46,46],"right_children":[2,4,6,8,10,12,14,16,18,-1,20,22,24,26,28,-1,-1,30,-1,32,34,36,38,40,-1,42,44,46,-1,-1,48,50,52,54,56,-1,58,-1,-1,-1,-1,60,62,64,66,68,70,-1,-1,-1,-1,-1,-1,-1,-1,-1,-1,-1,-1,-1,-1,-1,-1,-1,-1,-1,-1,-1,-1,-1,-1],"split_conditions":[5.98E2,1E0,6.59E2,1E0,1.6E1,1.22E2,1.9E0,1.45E2,6.7E1,4.6363723E-2,1.34E2,1.42E2,1.56E2,8.75E2,1.48E2,7.5920545E-2,-2.9628256E-2,2.8E0,7.1413973E-3,7.2E1,1.42E2,1E0,1.12E2,2E0,-5.8507046E-4,1.32E2,6.3E1,8.07E2,-3.501391E-2,-4.4168245E-2,1.41E2,5.5E1,6.5E1,2E0,2.04E2,-3.5455283E-2,1.14E2,6.0193367E-2,8.453379E-3,9.3613684E-2,5.059029E-3,1E0,7.58E2,1E-1,2.45E2,2E0,1.29E2,7.443428E-3,-2.5387494E-2,3.5824265E-2,-2.5859393E-2,-3.9739124E-2,-9.3739685E-3,-6.5421048E-3,6.347559E-2,6.9902907E-3,-3.4395665E-2,4.5211192E-2,-2.5324762E-2,-3.8499128E-2,-4.5298077E-3,-3.0878851E-2,3.7485067E-2,4.284265E-2,-3.4792777E-2,7.525986E-2,1.2748754E-2,6.849771E-2,-6.3052997E-3,2.370148E-2,-2.9747378E-2],"split_indices":[0,13,0,12,0,5,11,9,1,0,5,9,5,0,5,0,0,11,0,0,5,10,5,8,0,5,1,0,0,0,9,1,1,13,6,0,9,0,0,0,0,7,0,11,6,12,5,0,0,0,0,0,0,0,0,0,0,0,0,0,0,0,0,0,0,0,0,0,0,0,0],"split_type":[0,0,0,0,0,0,0,0,0,0,0,0,0,0,0,0,0,0,0,0,0,0,0,0,0,0,0,0,0,0,0,0,0,0,0,0,0,0,0,0,0,0,0,0,0,0,0,0,0,0,0,0,0,0,0,0,0,0,0,0,0,0,0,0,0,0,0,0,0,0,0],"sum_hessian":[1.6456203E2,9.942154E1,6.514049E1,7.648576E1,2.2935776E1,1.3774303E1,5.1366188E1,2.9776742E0,7.350809E1,1.8576013E0,2.1078175E1,7.8471184E0,5.927185E0,3.6103367E1,1.526282E1,1.1730208E0,1.8046533E0,7.224709E1,1.2609973E0,1.1451089E1,9.627086E0,5.231244E0,2.6158745E0,4.312667E0,1.614518E0,2.8915281E1,7.188085E0,1.1853572E1,3.4092484E0,6.977787E1,2.4692173E0,2.6105714E0,8.840518E0,5.38212E0,4.244966E0,2.9166212E0,2.3146229E0,1.4868243E0,1.1290501E0,2.9939797E0,1.3186872E0,1.8713022E1,1.0202259E1,4.3605657E0,2.8275197E0,8.286479E0,3.567093E0,1.2485536E0,1.2206638E0,1.360274E0,1.2502974E0,6.5116096E0,2.3289082E0,1.9875568E0,3.394563E0,1.2637919E0,2.981174E0,1.0992583E0,1.2153646E0,1.5022615E1,3.6904058E0,7.0886474E0,3.113612E0,1.1456513E0,3.2149143E0,1.8043745E0,1.0231452E0,6.3079443E0,1.978535E0,1.7483621E0,1.8187308E0],"tree_param":{"num_deleted":"0","num_feature":"15","num_nodes":"71","size_leaf_vector":"1"}},{"base_weights":[-2.4192037E-1,-3.9709815E-1,8.775974E-2,-5.15888E-1,5.884575E-2,8.3274215E-2,1.1186876E-2,7.12575E-2,-5.356527E-1,-1.1941542E-1,9.700191E-1,-3.365343E-1,1.2411248E-1,5.045379E-2,-2.9294102E-2,-5.461924E-1,7.96614E-3,-2.4655719E-1,4.2242685E-1,9.2151515E-2,1.0247725E-2,-3.9915215E-2,-4.1717116E-2,8.617103E-1,1.5316682E-2,-2.1407966E-1,-5.666723E-1,6.680551E-2,-4.0715158E-2,5.3344883E-2,-1.938328E-3,3.8412902E-1,-3.4032296E-2,8.610453E-2,4.005384E-1,-9.8114334E-2,3.7135464E-1,4.8490155E-2,-3.7019234E-2,-1.7010333E-2,-4.3349806E-2,3.483314E-2,-2.4125768E-2,6.337053E-2,-2.4093738E-2,1.4890685E-3,4.9443815E-2,-2.1456463E-2,2.3822192E-2,-2.2613297E-3,7.263971E-2],"categories":[],"categories_nodes":[],"categories_segments":[],"categories_sizes":[],"default_left":[0,0,0,0,0,0,0,0,0,0,0,0,0,0,0,0,0,0,0,0,0,0,0,0,0,0,0,0,0,0,0,0,0,0,0,0,0,0,0,0,0,0,0,0,0,0,0,0,0,0,0],"id":23,"left_children":[1,3,5,7,9,-1,11,13,15,17,19,21,23,-1,-1,25,-1,27,29,-1,-1,-1,31,33,35,37,39,41,-1,-1,-1,43,-1,-1,45,47,49,-1,-1,-1,-1,-1,-1,-1,-1,-1,-1,-1,-1,-1,-1],"loss_changes":[8.473885E0,6.1150646E0,4.1855183E0,1.0736198E0,4.0331764E0,0E0,2.0399787E0,1.3150866E0,6.427765E-1,1.5551075E0,7.064452E-1,7.1298146E-1,3.127995E0,0E0,0E0,4.582138E-1,0E0,1.6788641E0,5.8437765E-1,0E0,0E0,0E0,1.2568011E0,2.022183E-1,1.4552E0,1.8962047E0,1.7547989E-1,1.6150869E0,0E0,0E0,0E0,1.4335905E0,0E0,0E0,3.273151E-1,2.2347295E0,2.1144798E0,0E0,0E0,0E0,0E0,0E0,0E0,0E0,0E0,0E0,0E0,0E0,0E0,0E0,0E0],"parents":[2147483647,0,0,1,1,2,2,3,3,4,4,6,6,7,7,8,8,9,9,10,10,11,11,12,12,15,15,17,17,18,18,22,22,23,23,24,24,25,25,26,26,27,27,31,31,34,34,35,35,36,36],"right_children":[2,4,6,8,10,-1,12,14,16,18,20,22,24,-1,-1,26,-1,28,30,-1,-1,-1,32,34,36,38,40,42,-1,-1,-1,44,-1,-1,46,48,50,-1,-1,-1,-1,-1,-1,-1,-1,-1,-1,-1,-1,-1,-1],"split_conditions":[6.59E2,1E0,8.2E1,1E0,2.8E0,8.3274215E-2,5E-1,1.7E2,6.7E1,3.05E2,1.95E2,1E0,1.06E2,5.045379E-2,-2.9294102E-2,3.8E1,7.96614E-3,1.29E2,1.3E0,9.2151515E-2,1.0247725E-2,-3.9915215E-2,2E0,8.5E1,2E0,1.79E2,9.6E1,2E0,-4.0715158E-2,5.3344883E-2,-1.938328E-3,1E0,-3.4032296E-2,8.610453E-2,9.9E1,6.4E1,2.21E2,4.8490155E-2,-3.7019234E-2,-1.7010333E-2,-4.3349806E-2,3.483314E-2,-2.4125768E-2,6.337053E-2,-2.4093738E-2,1.4890685E-3,4.9443815E-2,-2.1456463E-2,2.3822192E-2,-2.2613297E-3,7.263971E-2],"split_indices":[0,13,9,14,11,0,11,6,1,6,0,10,9,0,0,0,0,5,11,0,0,0,14,6,4,6,9,12,0,0,0,4,0,0,9,1,6,0,0,0,0,0,0,0,0,0,0,0,0,0,0],"split_type":[0,0,0,0,0,0,0,0,0,0,0,0,0,0,0,0,0,0,0,0,0,0,0,0,0,0,0,0,0,0,0,0,0,0,0,0,0,0,0,0,0,0,0,0,0,0,0,0,0,0,0],"sum_hessian":[1.6395692E2,1.11343796E2,5.261313E1,8.822622E1,2.3117577E1,2.7248569E0,4.988827E1,2.7883432E0,8.5437874E1,2.006167E1,3.0559049E0,1.1744474E1,3.8143795E1,1.0127969E0,1.7755462E0,8.420426E1,1.2336147E0,1.6690304E1,3.3713682E0,1.9700867E0,1.085818E0,6.5752926E0,5.169182E0,4.0134635E0,3.4130333E1,5.556132E0,7.864813E1,8.488198E0,8.2021055E0,1.6934979E0,1.6778702E0,2.575344E0,2.5938375E0,1.5571557E0,2.456308E0,2.6433308E1,7.6970253E0,1.0402101E0,4.5159216E0,3.2142644E0,7.543386E1,4.0980525E0,4.3901453E0,1.4380429E0,1.1373012E0,1.4295416E0,1.0267664E0,1.8417843E1,8.015465E0,5.1703153E0,2.52671E0],"tree_param":{"num_deleted":"0","num_feature":"15","num_nodes":"51","size_leaf_vector":"1"}},{"base_weights":[-4.8538956E-1,-5.475308E-1,5.1107083E-2,-5.600707E-1,-4.3711204E-2,-3.673976E-1,2.838125E-1,-5.668068E-1,6.487824E-3,3.307199E-2,-3.0901784E-2,1.1322506E-2,-3.7070956E-2,8.099045E-2,9.7583085E-2,-2.4528201E-1,-4.3511596E-2,3.678974E-1,-3.3946846E-2,-3.7933715E-2,4.978459E-2,-2.7104387E-2,6.0029787E-1,2.1822542E-2,7.816213E-2],"categories":[],"categories_nodes":[],"categories_segments":[],"categories_sizes":[],"default_left":[0,0,0,0,0,0,0,0,0,0,0,0,0,0,0,0,0,0,0,0,0,0,0,0,0],"id":24,"left_children":[1,3,5,7,9,11,13,15,-1,-1,-1,-1,-1,-1,17,19,-1,21,-1,-1,-1,-1,23,-1,-1],"loss_changes":[5.2583733E0,8.643646E-1,1.779372E0,6.4653015E-1,9.8521143E-1,5.0753766E-1,1.6169913E0,4.409523E-1,0E0,0E0,0E0,0E0,0E0,0E0,1.7303652E0,2.0288472E0,0E0,1.5054467E0,0E0,0E0,0E0,0E0,5.3612685E-1,0E0,0E0],"parents":[2147483647,0,0,1,1,2,2,3,3,4,4,5,5,6,6,7,7,14,14,15,15,17,17,22,22],"right_children":[2,4,6,8,10,12,14,16,-1,-1,-1,-1,-1,-1,18,20,-1,22,-1,-1,-1,-1,24,-1,-1],"split_conditions":[2.4E0,3E0,5.6E1,1.9E2,1.1E0,4.9E1,1.15E2,9.3E1,6.487824E-3,3.307199E-2,-3.0901784E-2,1.1322506E-2,-3.7070956E-2,8.099045E-2,2.55E2,9.1E1,-4.3511596E-2,1E0,-3.3946846E-2,-3.7933715E-2,4.978459E-2,-2.7104387E-2,1.6E2,2.1822542E-2,7.816213E-2],"split_indices":[11,13,1,5,11,0,5,9,0,0,0,0,0,0,6,9,0,10,0,0,0,0,5,0,0],"split_type":[0,0,0,0,0,0,0,0,0,0,0,0,0,0,0,0,0,0,0,0,0,0,0,0,0],"sum_hessian":[1.5588734E2,1.3968713E2,1.6200216E1,1.3618585E2,3.5012798E0,5.582201E0,1.0618015E1,1.3490378E2,1.2820675E0,1.4266605E0,2.0746193E0,1.0603625E0,4.5218387E0,1.103283E0,9.514732E0,6.149505E0,1.2875427E2,6.6023693E0,2.9123633E0,5.1246414E0,1.024864E0,1.4613886E0,5.1409807E0,3.9995563E0,1.1414244E0],"tree_param":{"num_deleted":"0","num_feature":"15","num_nodes":"25","size_leaf_vector":"1"}},{"base_weights":[5.4117054E-1,9.730897E-1,-1.1236307E-1,1.1677632E0,1.7027323E-1,-4.5386004E-1,1.7802964E-1,1.2465546E0,5.111897E-1,-3.5550535E-1,7.709378E-1,-5.430932E-1,-1.1297514E-1,4.2873037E-1,-1.4761734E-1,1.2579274E0,1.1934809E-2,9.694268E-1,-1.7145835E-1,4.652337E-2,-4.849531E-1,-4.353163E-2,8.343238E-2,-3.382078E-4,-4.3042034E-2,-3.907537E-1,5.515613E-2,6.9815946E-1,-6.839233E-2,-2.764534E-1,3.090177E-1,3.1891096E-2,9.495218E-2,1.7636469E-2,8.8741675E-2,-3.605571E-2,4.293987E-2,6.4168685E-6,-4.1493278E-2,-2.9667357E-2,2.5494482E-2,-3.7607983E-2,5.669713E-3,7.96518E-1,1.10140294E-1,-3.6947865E-2,2.7428707E-1,-3.7804604E-1,4.274853E-2,-2.5785577E-2,6.2333834E-1,6.8365536E-3,6.4440824E-2,4.632407E-2,-2.7310958E-2,4.730716E-2,-1.857807E-3,2.5393628E-2,-3.697235E-2,6.696367E-2,5.7089366E-3],"categories":[],"categories_nodes":[],"categories_segments":[],"categories_sizes":[],"default_left":[0,0,0,0,0,0,0,0,0,0,0,0,0,0,0,0,0,0,0,0,0,0,0,0,0,0,0,0,0,0,0,0,0,0,0,0,0,0,0,0,0,0,0,0,0,0,0,0,0,0,0,0,0,0,0,0,0,0,0,0,0],"id":25,"left_children":[1,3,5,7,9,11,13,15,17,19,21,23,25,27,29,31,-1,33,35,-1,37,39,-1,-1,-1,41,-1,43,45,47,49,-1,-1,-1,-1,-1,-1,-1,-1,-1,-1,-1,-1,51,53,-1,55,57,-1,-1,59,-1,-1,-1,-1,-1,-1,-1,-1,-1,-1],"loss_changes":[5.7303886E1,1.8883568E1,8.165253E0,4.437622E0,8.16943E0,1.0868244E0,3.71881E0,8.7442017E-1,3.984434E0,2.0711977E0,3.3817549E0,4.8931503E-1,2.4304094E0,3.4706292E0,1.275033E0,4.081726E-2,0E0,8.918829E-1,1.5988619E0,0E0,4.2850327E-1,7.4229544E-1,0E0,0E0,0E0,4.252323E-1,0E0,8.759718E-1,1.573381E0,1.6170377E0,1.2242568E0,0E0,0E0,0E0,0E0,0E0,0E0,0E0,0E0,0E0,0E0,0E0,0E0,5.458269E-1,1.0789938E0,0E0,6.675214E-1,1.4148524E0,0E0,0E0,4.7443688E-1,0E0,0E0,0E0,0E0,0E0,0E0,0E0,0E0,0E0,0E0],"parents":[2147483647,0,0,1,1,2,2,3,3,4,4,5,5,6,6,7,7,8,8,9,9,10,10,11,11,12,12,13,13,14,14,15,15,17,17,18,18,20,20,21,21,25,25,27,27,28,28,29,29,30,30,43,43,44,44,46,46,47,47,50,50],"right_children":[2,4,6,8,10,12,14,16,18,20,22,24,26,28,30,32,-1,34,36,-1,38,40,-1,-1,-1,42,-1,44,46,48,50,-1,-1,-1,-1,-1,-1,-1,-1,-1,-1,-1,-1,52,54,-1,56,58,-1,-1,60,-1,-1,-1,-1,-1,-1,-1,-1,-1,-1],"split_conditions":[4.93E2,1E0,7.05E2,2E0,1E0,1E0,1E0,2.4E0,9E-1,1.1E2,2E0,9.6E1,2E0,1E0,2E0,3.2E1,1.1934809E-2,1E0,3E0,4.652337E-2,1.06E2,6.2E1,8.343238E-2,-3.382078E-4,-4.3042034E-2,2E0,5.515613E-2,1.1E0,1.33E2,1.5E2,1.07E2,3.1891096E-2,9.495218E-2,1.7636469E-2,8.8741675E-2,-3.605571E-2,4.293987E-2,6.4168685E-6,-4.1493278E-2,-2.9667357E-2,2.5494482E-2,-3.7607983E-2,5.669713E-3,7.18E2,7.42E2,-3.6947865E-2,8.21E2,1E2,4.274853E-2,-2.5785577E-2,1.21E2,6.8365536E-3,6.4440824E-2,4.632407E-2,-2.7310958E-2,4.730716E-2,-1.857807E-3,2.5393628E-2,-3.697235E-2,6.696367E-2,5.7089366E-3],"split_indices":[0,13,0,14,4,4,10,11,11,5,12,5,12,7,14,1,0,4,4,0,9,1,0,0,0,8,0,11,9,9,9,0,0,0,0,0,0,0,0,0,0,0,0,0,0,0,0,9,0,0,9,0,0,0,0,0,0,0,0,0,0],"split_type":[0,0,0,0,0,0,0,0,0,0,0,0,0,0,0,0,0,0,0,0,0,0,0,0,0,0,0,0,0,0,0,0,0,0,0,0,0,0,0,0,0,0,0,0,0,0,0,0,0,0,0,0,0,0,0,0,0,0,0,0,0],"sum_hessian":[2.016209E2,1.2109829E2,8.0522606E1,9.7098465E1,2.399982E1,3.6746464E1,4.3776146E1,8.589246E1,1.1206005E1,1.3015305E1,1.0984515E1,2.8652845E1,8.0936165E0,2.4555464E1,1.922068E1,8.484828E1,1.0441778E0,6.453742E0,4.7522626E0,1.0802284E0,1.1935076E1,3.5027993E0,7.481716E0,1.6119775E0,2.7040869E1,6.5036273E0,1.5899897E0,1.5662402E1,8.893063E0,1.52988205E1,3.9218593E0,1.3329E0,8.351538E1,1.9288981E0,4.524844E0,3.6067362E0,1.1455264E0,1.596262E0,1.0338814E1,1.8097701E0,1.6930292E0,5.195302E0,1.3083253E0,1.3114198E1,2.5482044E0,3.7780871E0,5.114975E0,1.4153431E1,1.1453898E0,1.2441084E0,2.6777508E0,1.2707579E0,1.184344E1,1.0849566E0,1.4632479E0,1.8274739E0,3.2875013E0,1.6870131E0,1.2466417E1,1.3709393E0,1.3068116E0],"tree_param":{"num_deleted":"0","num_feature":"15","num_nodes":"61","size_leaf_vector":"1"}},{"base_weights":[2.010403E-1,-2.7750143E-1,5.8711475E-1,-1.2159314E-1,-4.2822227E-2,1.2497052E0,2.7950382E-1,-1.6061912E-1,5.5407E-2,9.6522935E-2,8.480497E-3,4.1598833E-1,-2.4778022E-1,-4.3695268E-1,-4.2234063E-2,5.8019936E-1,8.8406466E-2,1.0592999E-1,-3.784468E-1,-4.8722872E-1,2.003333E-3,6.480694E-2,-3.038906E-1,6.633849E-1,-2.527168E-1,-1.7105052E-2,7.0126995E-2,-3.213368E-2,5.7765935E-2,-3.9528508E-2,4.942792E-3,-2.2829578E-3,-4.1126188E-2,2.3284947E-2,-1.5888622E-2,-3.7295826E-2,-8.421188E-3,-1.5819103E-2,5.6005478E-2,-3.2569684E-2,9.9864425E-3,5.5652868E-2,-9.674118E-3,3.4853734E-2,-2.9351406E-2],"categories":[],"categories_nodes":[],"categories_segments":[],"categories_sizes":[],"default_left":[0,0,0,0,0,0,0,0,0,0,0,0,0,0,0,0,0,0,0,0,0,0,0,0,0,0,0,0,0,0,0,0,0,0,0,0,0,0,0,0,0,0,0,0,0],"id":26,"left_children":[1,3,5,7,-1,9,11,13,-1,-1,-1,15,17,19,21,23,25,27,29,31,-1,33,35,37,39,41,-1,-1,-1,-1,43,-1,-1,-1,-1,-1,-1,-1,-1,-1,-1,-1,-1,-1,-1],"loss_changes":[3.4197895E1,3.7252364E0,2.049767E1,1.9798926E0,0E0,1.2159424E0,5.2227535E0,1.7431586E0,0E0,0E0,0E0,3.0087261E0,7.4512714E-1,3.870101E-1,1.1065623E0,2.780552E0,1.8181012E0,2.068121E0,6.496991E-1,3.888657E-1,0E0,1.993453E0,3.6813903E-1,2.6763783E0,3.4843698E-1,1.7027287E0,0E0,0E0,0E0,0E0,9.404588E-1,0E0,0E0,0E0,0E0,0E0,0E0,0E0,0E0,0E0,0E0,0E0,0E0,0E0,0E0],"parents":[2147483647,0,0,1,1,2,2,3,3,5,5,6,6,7,7,11,11,12,12,13,13,14,14,15,15,16,16,17,17,18,18,19,19,21,21,22,22,23,23,24,24,25,25,30,30],"right_children":[2,4,6,8,-1,10,12,14,-1,-1,-1,16,18,20,22,24,26,28,30,32,-1,34,36,38,40,42,-1,-1,-1,-1,44,-1,-1,-1,-1,-1,-1,-1,-1,-1,-1,-1,-1,-1,-1],"split_conditions":[4.91E2,3.03E2,6.04E2,2.96E2,-4.2822227E-2,2E0,1.9E0,1E0,5.5407E-2,9.6522935E-2,8.480497E-3,2E0,5.8E1,1.52E2,1.9E2,1.51E2,1.57E2,2.24E2,1E0,1.1E2,2.003333E-3,2E0,2.15E2,8.8E1,1.71E2,1.04E2,7.0126995E-2,-3.213368E-2,5.7765935E-2,-3.9528508E-2,8.14E2,-2.2829578E-3,-4.1126188E-2,2.3284947E-2,-1.5888622E-2,-3.7295826E-2,-8.421188E-3,-1.5819103E-2,5.6005478E-2,-3.2569684E-2,9.9864425E-3,5.5652868E-2,-9.674118E-3,3.4853734E-2,-2.9351406E-2],"split_indices":[0,0,0,0,0,12,11,2,0,0,0,8,1,5,0,9,9,6,7,5,0,12,6,9,9,5,0,0,0,0,0,0,0,0,0,0,0,0,0,0,0,0,0,0,0],"split_type":[0,0,0,0,0,0,0,0,0,0,0,0,0,0,0,0,0,0,0,0,0,0,0,0,0,0,0,0,0,0,0,0,0,0,0,0,0,0,0,0,0,0,0,0,0],"sum_hessian":[1.8321906E2,8.193782E1,1.0128123E2,5.4433243E1,2.750458E1,3.1141079E1,7.014015E1,5.2849285E1,1.5839561E0,3.0024387E1,1.1166909E0,5.588556E1,1.425459E1,1.5043623E1,3.7805664E1,3.6711548E1,1.9174011E1,3.8964193E0,1.03581705E1,1.3526134E1,1.5174896E0,2.7363752E1,1.0441911E1,3.3563057E1,3.1484914E0,1.792044E1,1.2535704E0,2.3560915E0,1.5403277E0,7.1947985E0,3.163372E0,1.7730557E0,1.1753078E1,1.442908E1,1.2934671E1,4.402873E0,6.039037E0,2.7881205E0,3.0774935E1,2.055838E0,1.0926533E0,1.5784149E0,1.6342026E1,1.3844762E0,1.7788959E0],"tree_param":{"num_deleted":"0","num_feature":"15","num_nodes":"45","size_leaf_vector":"1"}},{"base_weights":[-2.2486867E-1,-4.0231645E-1,4.012951E-2,-5.1992154E-1,-1.8516455E-2,1.1337485E-1,-4.315636E-1,2.6763228E-1,-5.5657816E-1,4.4225216E-2,-9.820177E-2,2.3282413E-1,-1.8292956E-1,1.2942561E-2,-3.966066E-2,7.25534E-2,-2.9260304E-2,-5.6965697E-1,7.3510115E-3,-3.1949973E-1,1.6585147E-1,6.0532165E-1,1.1339122E-1,4.7629812E-1,-4.8087892E-1,-4.369978E-2,-1.4857061E-1,9.367809E-2,-4.411763E-1,5.133091E-1,-3.0213833E-1,3.0074716E-1,7.301471E-2,-1.0262612E-1,3.641532E-1,-2.9289987E-2,9.4458425E-1,1.0408141E-2,-4.1398466E-2,-2.5173334E-2,7.651195E-3,3.5043348E-2,-2.5769694E-2,-3.9358318E-2,-9.210253E-3,-6.5495227E-3,5.97953E-2,-3.4004718E-2,7.0615225E-3,-4.4673504E-3,5.1484067E-2,-1.8630281E-2,1.2545241E-2,-7.290331E-3,4.813328E-2,8.6882755E-2,1.1913841E-2],"categories":[],"categories_nodes":[],"categories_segments":[],"categories_sizes":[],"default_left":[0,0,0,0,0,0,0,0,0,0,0,0,0,0,0,0,0,0,0,0,0,0,0,0,0,0,0,0,0,0,0,0,0,0,0,0,0,0,0,0,0,0,0,0,0,0,0,0,0,0,0,0,0,0,0,0,0],"id":27,"left_children":[1,3,5,7,9,11,13,15,17,-1,19,21,23,-1,-1,-1,-1,25,-1,27,29,31,33,35,37,-1,39,41,43,45,47,49,-1,51,53,-1,55,-1,-1,-1,-1,-1,-1,-1,-1,-1,-1,-1,-1,-1,-1,-1,-1,-1,-1,-1,-1],"loss_changes":[7.652584E0,4.384734E0,2.3305757E0,2.2992516E0,1.2148266E0,2.0938385E0,6.2496173E-1,2.2129602E0,6.6793823E-1,0E0,1.3364328E0,1.7885153E0,3.6095936E0,0E0,0E0,0E0,0E0,2.981491E-1,0E0,6.592486E-1,1.8905556E0,8.1796217E-1,1.8162892E0,2.7475579E0,6.207707E-1,0E0,1.9582741E-1,7.5203675E-1,1.929369E-1,1.1775115E0,3.5301578E-1,9.95315E-1,0E0,7.663783E-1,2.0371451E0,0E0,5.044122E-1,0E0,0E0,0E0,0E0,0E0,0E0,0E0,0E0,0E0,0E0,0E0,0E0,0E0,0E0,0E0,0E0,0E0,0E0,0E0,0E0],"parents":[2147483647,0,0,1,1,2,2,3,3,4,4,5,5,6,6,7,7,8,8,10,10,11,11,12,12,17,17,19,19,20,20,21,21,22,22,23,23,24,24,26,26,27,27,28,28,29,29,30,30,31,31,33,33,34,34,36,36],"right_children":[2,4,6,8,10,12,14,16,18,-1,20,22,24,-1,-1,-1,-1,26,-1,28,30,32,34,36,38,-1,40,42,44,46,48,50,-1,52,54,-1,56,-1,-1,-1,-1,-1,-1,-1,-1,-1,-1,-1,-1,-1,-1,-1,-1,-1,-1,-1,-1],"split_conditions":[5.98E2,1E0,1.56E2,1E0,1.6E1,1E0,6.37E2,1.45E2,6.7E1,4.4225216E-2,1.34E2,6.59E2,1.19E2,1.2942561E-2,-3.966066E-2,7.25534E-2,-2.9260304E-2,2.8E0,7.3510115E-3,7.2E1,1.42E2,1.22E2,2.1E2,1.22E2,1E0,-4.369978E-2,2.33E2,1.22E2,6.5E1,2E0,5.9E1,1.42E2,7.301471E-2,1.28E2,6E1,-2.9289987E-2,5.9E1,1.0408141E-2,-4.1398466E-2,-2.5173334E-2,7.651195E-3,3.5043348E-2,-2.5769694E-2,-3.9358318E-2,-9.210253E-3,-6.5495227E-3,5.97953E-2,-3.4004718E-2,7.0615225E-3,-4.4673504E-3,5.1484067E-2,-1.8630281E-2,1.2545241E-2,-7.290331E-3,4.813328E-2,8.6882755E-2,1.1913841E-2],"split_indices":[0,13,5,12,0,4,0,9,1,0,5,0,9,0,0,0,0,11,0,0,5,5,6,5,12,0,6,5,1,13,1,9,0,9,1,0,1,0,0,0,0,0,0,0,0,0,0,0,0,0,0,0,0,0,0,0,0],"split_type":[0,0,0,0,0,0,0,0,0,0,0,0,0,0,0,0,0,0,0,0,0,0,0,0,0,0,0,0,0,0,0,0,0,0,0,0,0,0,0,0,0,0,0,0,0,0,0,0,0,0,0,0,0,0,0,0,0],"sum_hessian":[1.6139674E2,9.635645E1,6.504029E1,7.348447E1,2.2871988E1,5.6955746E1,8.084546E0,2.9879673E0,7.04965E1,1.9081728E0,2.0963816E1,4.0744602E1,1.6211143E1,1.0135233E0,7.071023E0,1.2197168E0,1.7682503E0,6.924277E1,1.2537303E0,1.1291034E1,9.672781E0,8.904425E0,3.1840178E1,4.8598647E0,1.1351278E1,6.679583E1,2.4469411E0,2.6209986E0,8.670035E0,5.4956865E0,4.177095E0,5.867624E0,3.0368013E0,1.7422455E1,1.4417722E1,1.7628115E0,3.0970533E0,1.0704348E0,1.0280844E1,1.2066722E0,1.240269E0,1.3765024E0,1.2444963E0,6.3533926E0,2.3166425E0,1.9864378E0,3.5092487E0,2.9189029E0,1.2581921E0,3.4708586E0,2.396765E0,1.1364068E1,6.0583878E0,5.66066E0,8.757062E0,2.0616083E0,1.035445E0],"tree_param":{"num_deleted":"0","num_feature":"15","num_nodes":"57","size_leaf_vector":"1"}},{"base_weights":[-2.331751E-1,-3.8755623E-1,8.492669E-2,-4.6282113E-1,3.1240955E-1,5.6148577E-1,-6.245813E-2,-5.70971E-1,-2.4564983E-1,9.320102E-2,6.636068E-2,-3.373215E-2,8.788763E-1,-1.3370003E-1,5.0469416E-1,-6.415289E-3,-4.391337E-2,1.3140848E-1,-4.436172E-1,-3.1832267E-2,3.1251964E-1,9.951919E-1,4.750306E-3,-2.2416721E-1,2.911545E-1,-9.519793E-2,7.197708E-2,8.0599403E-1,-3.9829755E-1,2.7492728E-2,-5.2302366E-1,5.501509E-1,-2.6984433E-2,1.2075918E0,-6.7950395E-4,-3.5393077E-1,5.4122906E-2,5.5383676E-1,-2.8754607E-2,1.3072872E-2,-2.3870999E-2,9.0600744E-2,2.197393E-2,-3.8321912E-2,9.096065E-3,-4.2266853E-2,-2.789598E-3,5.7472624E-2,1.00580226E-4,3.847926E-2,1.0480652E-1,-3.8208067E-2,4.3356516E-3,-9.984547E-3,4.904293E-2,8.189068E-2,-1.0392658E-2],"categories":[],"categories_nodes":[],"categories_segments":[],"categories_sizes":[],"default_left":[0,0,0,0,0,0,0,0,0,0,0,0,0,0,0,0,0,0,0,0,0,0,0,0,0,0,0,0,0,0,0,0,0,0,0,0,0,0,0,0,0,0,0,0,0,0,0,0,0,0,0,0,0,0,0,0,0],"id":28,"left_children":[1,3,5,7,9,11,13,15,17,19,-1,-1,21,23,25,-1,-1,27,29,-1,31,33,-1,35,37,39,-1,41,43,-1,45,47,-1,49,-1,51,53,55,-1,-1,-1,-1,-1,-1,-1,-1,-1,-1,-1,-1,-1,-1,-1,-1,-1,-1,-1],"loss_changes":[7.97423E0,5.889694E0,3.8038435E0,2.18182E0,1.3209E0,4.4954925E0,1.7597486E0,4.1044235E-1,2.6426818E0,1.1776539E0,0E0,0E0,8.9141035E-1,1.5257876E0,1.4242771E0,0E0,0E0,4.855953E0,1.6669807E0,0E0,1.3229084E0,1.8747282E0,0E0,1.1708872E0,1.4714608E0,2.3680723E-1,0E0,8.6552835E-1,5.172765E-1,0E0,3.9842367E-1,6.630415E-1,0E0,2.3491764E-1,0E0,1.4306581E0,1.3235412E0,2.2090008E0,0E0,0E0,0E0,0E0,0E0,0E0,0E0,0E0,0E0,0E0,0E0,0E0,0E0,0E0,0E0,0E0,0E0,0E0,0E0],"parents":[2147483647,0,0,1,1,2,2,3,3,4,4,5,5,6,6,7,7,8,8,9,9,12,12,13,13,14,14,17,17,18,18,20,20,21,21,23,23,24,24,25,25,27,27,28,28,30,30,31,31,33,33,35,35,36,36,37,37],"right_children":[2,4,6,8,10,12,14,16,18,20,-1,-1,22,24,26,-1,-1,28,30,-1,32,34,-1,36,38,40,-1,42,44,-1,46,48,-1,50,-1,52,54,56,-1,-1,-1,-1,-1,-1,-1,-1,-1,-1,-1,-1,-1,-1,-1,-1,-1,-1,-1],"split_conditions":[6.59E2,2E0,1.06E2,1E0,2.8E0,1.24E2,7E1,9.6E1,2.3E2,1.32E2,6.636068E-2,-3.373215E-2,8.53E2,2.68E2,2.21E2,-6.415289E-3,-4.391337E-2,1.33E2,1E0,-3.1832267E-2,1.69E2,1.65E2,4.750306E-3,1.36E2,8.75E2,1.21E2,7.197708E-2,1.22E2,1.44E2,2.7492728E-2,1E0,1.9E0,-2.6984433E-2,1E-1,-6.7950395E-4,2E0,8.61E2,1E0,-2.8754607E-2,1.3072872E-2,-2.3870999E-2,9.0600744E-2,2.197393E-2,-3.8321912E-2,9.096065E-3,-4.2266853E-2,-2.789598E-3,5.7472624E-2,1.00580226E-4,3.847926E-2,1.0480652E-1,-3.8208067E-2,4.3356516E-3,-9.984547E-3,4.904293E-2,8.189068E-2,-1.0392658E-2],"split_indices":[0,13,9,10,11,5,1,9,0,9,0,0,0,6,6,0,0,9,14,0,9,5,0,5,0,9,0,5,5,0,13,11,0,11,0,4,0,10,0,0,0,0,0,0,0,0,0,0,0,0,0,0,0,0,0,0,0],"split_type":[0,0,0,0,0,0,0,0,0,0,0,0,0,0,0,0,0,0,0,0,0,0,0,0,0,0,0,0,0,0,0,0,0,0,0,0,0,0,0,0,0,0,0,0,0,0,0,0,0,0,0,0,0,0,0,0,0],"sum_hessian":[1.6070827E2,1.0805075E2,5.2657516E1,9.786632E1,1.0184431E1,1.1774804E1,4.0882713E1,6.424406E1,3.3622257E1,8.205025E0,1.9794062E0,2.713184E0,9.061621E0,3.699936E1,3.8833525E0,2.0685582E0,6.2175503E1,1.1691075E1,2.1931181E1,2.1635163E0,6.0415087E0,7.7377443E0,1.3238761E0,3.0893387E1,6.1059732E0,2.0160623E0,1.8672903E0,4.912884E0,6.778191E0,1.6348078E0,2.0296373E1,4.598023E0,1.4434857E0,6.2197785E0,1.5179658E0,2.0883732E1,1.0009656E1,4.5234203E0,1.5825529E0,1.0120578E0,1.0040045E0,1.9948643E0,2.9180198E0,5.5839925E0,1.1941985E0,1.858571E1,1.7106621E0,3.0144668E0,1.5835562E0,2.1298664E0,4.089912E0,1.4986269E1,5.897463E0,8.221097E0,1.7885585E0,2.2208004E0,2.3026202E0],"tree_param":{"num_deleted":"0","num_feature":"15","num_nodes":"57","size_leaf_vector":"1"}},{"base_weights":[-4.773219E-1,-5.405952E-1,5.176552E-2,-5.5338836E-1,-4.4217214E-2,-3.6029312E-1,2.7490836E-1,-5.603207E-1,6.573113E-3,3.1672496E-2,-3.0562323E-2,1.05729755E-2,-3.6546256E-2,7.730808E-2,9.409156E-2,-2.3567961E-1,-4.3053407E-2,3.52156E-1,-3.351358E-2,-3.739158E-2,4.7947533E-2,-2.6570262E-2,5.6868404E-1,2.0624235E-2,7.40078E-2],"categories":[],"categories_nodes":[],"categories_segments":[],"categories_sizes":[],"default_left":[0,0,0,0,0,0,0,0,0,0,0,0,0,0,0,0,0,0,0,0,0,0,0,0,0],"id":29,"left_children":[1,3,5,7,9,11,13,15,-1,-1,-1,-1,-1,-1,17,19,-1,21,-1,-1,-1,-1,23,-1,-1],"loss_changes":[5.110241E0,8.371544E-1,1.6739845E0,6.3653183E-1,9.340509E-1,4.7927225E-1,1.4991665E0,4.4799042E-1,0E0,0E0,0E0,0E0,0E0,0E0,1.6265686E0,1.9302799E0,0E0,1.3769137E0,0E0,0E0,0E0,0E0,4.9800158E-1,0E0,0E0],"parents":[2147483647,0,0,1,1,2,2,3,3,4,4,5,5,6,6,7,7,14,14,15,15,17,17,22,22],"right_children":[2,4,6,8,10,12,14,16,-1,-1,-1,-1,-1,-1,18,20,-1,22,-1,-1,-1,-1,24,-1,-1],"split_conditions":[2.4E0,3E0,5.6E1,1.9E2,1.1E0,4.9E1,1.15E2,9.3E1,6.573113E-3,3.1672496E-2,-3.0562323E-2,1.05729755E-2,-3.6546256E-2,7.730808E-2,2.55E2,9.1E1,-4.3053407E-2,1E0,-3.351358E-2,-3.739158E-2,4.7947533E-2,-2.6570262E-2,1.6E2,2.0624235E-2,7.40078E-2],"split_indices":[11,13,1,5,11,0,5,9,0,0,0,0,0,0,6,9,0,10,0,0,0,0,5,0,0],"split_type":[0,0,0,0,0,0,0,0,0,0,0,0,0,0,0,0,0,0,0,0,0,0,0,0,0],"sum_hessian":[1.5081291E2,1.3468434E2,1.6128572E1,1.3118835E2,3.495989E0,5.4499636E0,1.0678608E1,1.2990938E2,1.2789774E0,1.4593979E0,2.036591E0,1.0793518E0,4.370612E0,1.1539811E0,9.524627E0,6.006446E0,1.2390293E2,6.68461E0,2.8400173E0,4.9496174E0,1.0568286E0,1.4189904E0,5.2656193E0,4.0666466E0,1.1989725E0],"tree_param":{"num_deleted":"0","num_feature":"15","num_nodes":"25","size_leaf_vector":"1"}},{"base_weights":[5.084051E-1,9.0180254E-1,-1.07284136E-1,1.0768514E0,1.6079676E-1,-4.460665E-1,1.7100383E-1,1.1473857E0,4.7988772E-1,-3.4951565E-1,7.239733E-1,-5.366677E-1,-1.07431754E-1,3.398195E-1,-2.6420417E-1,1.1575135E0,1.1512552E-2,9.017029E-1,-1.690584E-1,1.8396828E-2,-4.703633E-1,-4.0569764E-2,1.0324894E0,-5.194776E-4,-4.261274E-2,-3.8279617E-1,5.2233435E-2,9.461391E-2,6.216716E-1,-3.9020336E-1,4.1286785E-2,8.7375306E-2,2.962835E-2,1.631964E-2,8.252293E-2,-3.5698906E-2,4.100668E-2,-4.009081E-2,-1.935399E-1,4.483254E-2,-3.2174993E-2,8.8554755E-2,5.1455253E-1,-3.710034E-2,5.559963E-3,7.109059E-1,-7.148607E-2,7.650847E-1,2.6906725E-2,-4.0822927E-2,2.5901804E-2,7.7691437E-3,-2.8336326E-2,-1.0861703E-3,6.1699282E-2,7.642221E-2,4.1834363E-3,-1.2488966E-2,4.786121E-2,2.5358628E-2,7.3498204E-2,-3.0732319E-2,4.6591543E-2],"categories":[],"categories_nodes":[],"categories_segments":[],"categories_sizes":[],"default_left":[0,0,0,0,0,0,0,0,0,0,0,0,0,0,0,0,0,0,0,0,0,0,0,0,0,0,0,0,0,0,0,0,0,0,0,0,0,0,0,0,0,0,0,0,0,0,0,0,0,0,0,0,0,0,0,0,0,0,0,0,0,0,0],"id":30,"left_children":[1,3,5,7,9,11,13,15,17,19,21,23,25,27,29,31,-1,33,35,-1,37,39,41,-1,-1,43,-1,45,47,49,-1,-1,-1,-1,-1,-1,-1,-1,51,-1,-1,-1,53,-1,-1,55,57,59,61,-1,-1,-1,-1,-1,-1,-1,-1,-1,-1,-1,-1,-1,-1],"loss_changes":[4.9575893E1,1.6008148E1,7.6689353E0,3.6909332E0,7.441837E0,1.0651503E0,3.3913264E0,7.219238E-1,3.5367618E0,1.1071244E0,2.9234333E0,4.7370148E-1,2.2532763E0,2.2091134E0,1.5617797E0,4.4181824E-2,0E0,8.000736E-1,1.5153162E0,0E0,1.0637045E-1,1.365906E0,6.364918E-2,0E0,0E0,4.1138887E-1,0E0,1.9679397E0,1.2663226E0,1.5424782E0,0E0,0E0,0E0,0E0,0E0,0E0,0E0,0E0,2.4667433E-1,0E0,0E0,0E0,6.1788875E-1,0E0,0E0,7.640095E-1,1.1624135E0,7.806673E-1,1.2842296E0,0E0,0E0,0E0,0E0,0E0,0E0,0E0,0E0,0E0,0E0,0E0,0E0,0E0,0E0],"parents":[2147483647,0,0,1,1,2,2,3,3,4,4,5,5,6,6,7,7,8,8,9,9,10,10,11,11,12,12,13,13,14,14,15,15,17,17,18,18,20,20,21,21,22,22,25,25,27,27,28,28,29,29,38,38,42,42,45,45,46,46,47,47,48,48],"right_children":[2,4,6,8,10,12,14,16,18,20,22,24,26,28,30,32,-1,34,36,-1,38,40,42,-1,-1,44,-1,46,48,50,-1,-1,-1,-1,-1,-1,-1,-1,52,-1,-1,-1,54,-1,-1,56,58,60,62,-1,-1,-1,-1,-1,-1,-1,-1,-1,-1,-1,-1,-1,-1],"split_conditions":[4.93E2,1E0,7.05E2,2E0,2E0,1E0,1.7E0,2.4E0,9E-1,3E-1,1E0,9.6E1,2E0,1E0,1.5E2,6.7E1,1.1512552E-2,1E0,3E0,1.8396828E-2,1E0,1.12E2,2.78E2,-5.194776E-4,-4.261274E-2,2E0,5.2233435E-2,5.2E1,1.42E2,2E0,4.1286785E-2,8.7375306E-2,2.962835E-2,1.631964E-2,8.252293E-2,-3.5698906E-2,4.100668E-2,-4.009081E-2,1.32E2,4.483254E-2,-3.2174993E-2,8.8554755E-2,2E0,-3.710034E-2,5.559963E-3,7.82E2,9.05E2,6.1E1,1.4E0,-4.0822927E-2,2.5901804E-2,7.7691437E-3,-2.8336326E-2,-1.0861703E-3,6.1699282E-2,7.642221E-2,4.1834363E-3,-1.2488966E-2,4.786121E-2,2.5358628E-2,7.3498204E-2,-3.0732319E-2,4.6591543E-2],"split_indices":[0,13,0,14,12,4,11,11,11,11,4,5,12,4,9,1,0,4,4,0,4,5,6,0,0,8,0,1,5,14,0,0,0,0,0,0,0,0,5,0,0,0,4,0,0,0,0,1,11,0,0,0,0,0,0,0,0,0,0,0,0,0,0],"split_type":[0,0,0,0,0,0,0,0,0,0,0,0,0,0,0,0,0,0,0,0,0,0,0,0,0,0,0,0,0,0,0,0,0,0,0,0,0,0,0,0,0,0,0,0,0,0,0,0,0,0,0,0,0,0,0,0,0,0,0,0,0,0,0],"sum_hessian":[2.0328154E2,1.2374769E2,7.953386E1,9.973412E1,2.401356E1,3.559649E1,4.393737E1,8.837064E1,1.1363481E1,1.279709E1,1.121647E1,2.762158E1,7.974911E0,3.1815449E1,1.2121922E1,8.7316246E1,1.0543967E0,6.6509037E0,4.7125773E0,1.9870695E0,1.081002E1,3.4745598E0,7.7419105E0,1.6188465E0,2.6002733E1,6.3303075E0,1.6446037E0,1.7728075E1,1.4087374E1,1.0949531E1,1.1723909E0,8.5943985E1,1.3722614E0,1.9678999E0,4.683004E0,3.5328178E0,1.1797593E0,8.019683E0,2.790337E0,1.1105602E0,2.3639996E0,5.0242286E0,2.717682E0,5.0188794E0,1.3114277E0,3.067295E0,1.466078E1,1.1119752E1,2.9676223E0,9.267891E0,1.6816399E0,1.2357261E0,1.5546108E0,1.3509728E0,1.3667091E0,1.7085329E0,1.3587621E0,1.36042595E1,1.05652E0,4.5843954E0,6.5353565E0,1.8896966E0,1.0779256E0],"tree_param":{"num_deleted":"0","num_feature":"15","num_nodes":"63","size_leaf_vector":"1"}},{"base_weights":[1.9110884E-1,-2.683642E-1,5.480251E-1,-1.1593792E-1,-4.2344518E-2,1.1523244E0,2.6260528E-1,-1.5432021E-1,5.2792452E-2,8.8898614E-2,8.393376E-3,3.9000386E-1,-2.4337476E-1,-4.27664E-1,-4.0430643E-2,7.9092795E-1,2.65807E-1,9.759945E-2,-3.7210682E-1,-4.7910824E-1,2.4112444E-3,6.267373E-2,-2.9676554E-1,-7.5006303E-3,9.499658E-1,-3.5373338E-2,3.276829E-1,-3.1905115E-2,5.474674E-2,-3.9155394E-2,7.3923115E-3,-1.9363472E-3,-4.0633164E-2,2.1867825E-2,-1.5245027E-2,-7.5640605E-4,-3.109637E-2,2.6693525E-2,8.148025E-2,3.8383923E-2,5.588826E-4,3.3669263E-2,-2.887549E-2],"categories":[],"categories_nodes":[],"categories_segments":[],"categories_sizes":[],"default_left":[0,0,0,0,0,0,0,0,0,0,0,0,0,0,0,0,0,0,0,0,0,0,0,0,0,0,0,0,0,0,0,0,0,0,0,0,0,0,0,0,0,0,0],"id":31,"left_children":[1,3,5,7,-1,9,11,13,-1,-1,-1,15,17,19,21,23,25,27,29,31,-1,33,35,-1,37,-1,39,-1,-1,-1,41,-1,-1,-1,-1,-1,-1,-1,-1,-1,-1,-1,-1],"loss_changes":[3.0329185E1,3.5979772E0,1.7619886E1,1.8339009E0,0E0,1.0013771E0,4.727858E0,1.6387476E0,0E0,0E0,0E0,2.6678162E0,6.9789904E-1,3.8302302E-1,1.0402148E0,1.9602575E0,2.2369256E0,1.9386836E0,